,EP,BP,SP,MOM_12_1,REV_1M,ROE_TTM,GPM_change,VOL_20D,IVOL,TURN_1M,AMIHUD
2015-07,0.09090909090909091,0.09090909090909091,0.09090909090909091,0.09090909090909091,0.09090909090909091,0.09090909090909091,0.09090909090909091,0.09090909090909091,0.09090909090909091,0.09090909090909091,0.09090909090909091
2015-08,0.09090909090909091,0.09090909090909091,0.09090909090909091,0.09090909090909091,0.09090909090909091,0.09090909090909091,0.09090909090909091,0.09090909090909091,0.09090909090909091,0.09090909090909091,0.09090909090909091
2015-09,0.6981278230322986,0.009314440928854242,0.03496134523808927,0.0,-0.09871716884628559,0.029257580889059526,0.0,-0.1082431670214496,0.004308178754790849,-0.006041760325589924,0.011028534963582432
2015-10,0.04827488890052846,0.1529295502351258,0.03659394909344111,0.0,-0.3934908959216991,0.01589710906062992,0.0,-0.011845762486315787,-0.05200265886597018,0.0224953405273919,0.2664698449088977
2015-11,0.09163455163517835,0.062863067521568,-0.10790919086167543,0.0,-0.06884533967799401,0.08121165901495912,0.0,0.030034769167186393,-0.0636431542216987,0.15844625318714695,0.3354120147125931
2015-12,0.07641234597703608,0.012440789741445647,-0.052419441341793514,0.0,-0.12928091051746463,0.03908875811328163,0.0,0.008091101815483451,-0.11631736751224657,0.158781714735159,0.40716757024608957
2016-01,0.15482148465226747,-0.03985674976967487,-0.0054139119045638565,0.0,-0.13654653571172967,0.1408328745722916,0.0,-0.04664317845572411,-0.15290520577550912,0.09468759963357672,0.22829245952466262
2016-02,0.16815218790254052,-0.0877033217570877,0.005352668689909935,0.0,-0.054898089853471804,0.14983910126670225,0.0,-0.1107080208480555,-0.13254234235354562,0.05867805815590926,0.23212620917277751
2016-03,0.08492950841002019,-0.04583000373417416,-0.06707995272755761,0.0,-0.15895272550912337,0.07695272863034766,0.0,-0.0063317346310575815,-0.173824416094922,0.09018799537752038,0.29591093488527714
2016-04,0.08769599434086237,-0.07426672686476753,-0.062498723463419906,0.0,-0.16707664819970888,0.08740030074385872,0.0,-0.012450023343165398,-0.1437318953440195,0.11016635727389364,0.2547133304263041
2016-05,0.06941365142532946,-0.1135806790504006,-0.08352479680689823,0.0,-0.14281498304260365,0.10875146410718628,0.0,-0.010778347152595619,-0.13988112328983207,0.10261940125066822,0.22863555387448598
2016-06,0.08908838081840637,-0.13527930057806542,-0.10102654969916072,0.0,-0.12015257942264679,0.12817651919431017,0.0,0.009902425872634013,-0.11553647133700311,0.09922341429778198,0.20161435877999148
2016-07,0.12566884213889787,-0.0788434559997461,-0.058635445491483806,0.0,-0.17194022946898999,0.14239876567460452,0.0,-0.04031298844540229,-0.12068840652905068,0.08268984658221269,0.17882201966961195
2016-08,0.08153418677776704,-0.08451583892024307,-0.09362733877711944,-0.16585178748454651,-0.14779909751701562,0.08229011136373528,0.0,-0.013304625004171842,-0.05133157558852283,0.10082313924345601,0.17892229932342238
2016-09,0.03992173535322045,-0.0361179935313298,-0.04219973073079617,-0.09547960054535928,-0.0832576745280494,0.03646450083975987,-0.44638823657831167,-0.011585361265632374,-0.07747924275296666,0.033795956278243264,0.09730996759633126
2016-10,0.10281319779757438,-0.07028629269714921,-0.054662450665867245,-0.06447820890216902,-0.14316485805500798,0.0764989478180533,0.09521503676058486,-0.06368769739688922,-0.13454324415289134,0.047396551574122835,0.14725351417969068
2016-11,0.08134647850092515,0.016664989168218108,0.01993568955890411,-0.17251739503201657,-0.22668737041037892,0.031416471955471495,-0.002181909947701702,-0.11715095575434899,-0.17098667381424199,-0.07035621941142339,0.09075584644636957
2016-12,0.09146334632382,0.03717648358860251,0.002479385616383428,-0.11355880765046102,-0.2129468916814619,0.021867599517408395,-0.06803977165353911,-0.11603746842229139,-0.13159752985804193,-0.11615409480013991,0.08867862088785042
2017-01,0.06980708336684163,0.09732958093169654,0.015566505901954866,-0.045961524426998315,-0.24065615742716542,-0.04199976054730579,-0.05455001076562314,-0.1365855933094569,-0.11530943117744384,-0.11164480261162717,0.07058954953388624
2017-02,0.04595869598790267,0.07930454861591994,-0.007364251481678275,-0.03012707205953927,-0.3575620960998232,-0.056758371821558205,-0.05307307772340803,-0.06668456897719646,-0.14813060984117957,-0.042406046364077604,0.11263066102771671
2017-03,0.1544563576749898,0.05374407078763792,0.02754559294772038,0.0068782590965997216,-0.269926740838721,0.02191512825121539,-0.020862939085591503,-0.1828857484822688,-0.15072006897138537,-0.08452923242181462,0.026535861442055296
2017-04,0.1455673973024708,0.10383322783710087,0.05123787325731056,-0.001997115464113135,-0.08293519881173327,0.008301697849296553,-0.05756476048347169,-0.1859164885655791,-0.13351584781052517,-0.20491528617417343,-0.024215106444225372
2017-05,0.11475558291378794,0.09184507567327055,0.1041900433764008,0.04947486220654875,-0.03685037122840379,0.0398803496329164,-0.017999323023291703,-0.1979331651157652,-0.02638356254543219,-0.2447093638197361,-0.07597830046444656
2017-06,0.07317395399079968,0.06758327608887572,0.17388145453793244,0.07916312404468558,-0.0357576799864178,0.017490284281714945,0.017066824361587733,-0.1873336132654492,-0.06820531716642783,-0.18328778589100592,-0.09705668638510304
2017-07,-0.007859796986753237,0.03151817269138779,0.10922704355458313,0.17471718603807876,0.018267841591485718,-0.01278108775353094,0.04090972875930371,-0.22049583986589433,-0.07464504726335407,-0.24314005388351886,-0.0664382016121095
2017-08,-0.03284748924153006,0.0008405987099187016,0.15694159804525318,0.13354162344285558,0.012566655468338232,0.028869880411578255,0.039663827450713444,-0.16797286007722895,-0.06573738268514243,-0.28732015303810765,-0.07369793142933342
2017-09,-0.07791775016658538,-0.024713488102293266,0.08962299177594812,0.09588133699978969,0.04177787684317187,0.05225395384613554,0.05579057359359838,-0.13671266503854113,-0.060027610488158606,-0.2690078140562978,-0.09629393908948018
2017-10,-0.019151655839959657,-0.06428308278758486,0.10412379416677003,0.10404996780840414,0.07590623488874113,0.10068585433618231,-0.0027990042804678667,-0.11488244953499127,0.04877796476524695,-0.26263522978161824,-0.10270476181003338
2017-11,0.04937732132893252,-0.1618388414171072,0.08099334757235468,0.1379954684015065,0.0552396499169605,0.128374194090911,0.032938770052064865,-0.0815141197966481,0.028701411144945784,-0.1683668297438601,-0.07466004653470876
2017-12,0.011840369557747326,-0.17388476283866958,0.09115286373957526,0.1334900012924461,0.07202275539833954,0.1466410188457266,0.10418978467534162,-0.02330605545494981,-0.0012135211631449456,-0.1483202993737614,-0.09393856766029789
2018-01,0.01583039818568013,-0.24039608802532728,0.06940259273042768,0.1147755788249736,0.06960837399256328,0.1429420678938746,0.09866678202876111,0.0038793340526392882,-0.023376010423911003,-0.1524061476590241,-0.06871662618281792
2018-02,0.040912635958995,-0.2187949875909836,0.04206210925865328,0.11101428702077697,0.06148219376125599,0.17966066221461924,0.06622560475074138,-0.02734291121496348,0.006740338788675281,-0.18166155554575664,-0.06410271389457925
2018-03,0.019418885144934447,-0.28481958897086024,0.03986751547206225,0.0917530357235922,0.08434099243467383,0.17199971184973964,0.018188924992898696,-0.023866540149222175,0.0410387571767898,-0.2001000837432115,-0.02460596434201518
2018-04,0.04966513387550156,-0.3056720066889872,0.0326314640068127,0.11286338047280603,0.05942887629548793,0.14892117333360322,0.03263164753793028,-0.03349189519077865,0.04455597668814745,-0.17153072456222968,-0.00860772134771525
2018-05,0.12326134941439898,-0.2865828150205888,0.0413219433851984,0.07823224895878739,-0.037894535339093885,0.14387883212908814,-0.037132945001244366,-0.04712870469628665,-0.007071278018613866,-0.14303128233286116,0.05446406570383824
2018-06,0.09287613186051341,-0.27968349817892324,0.012884543745507994,0.07774579982492755,-0.016026863270728917,0.1406997321708382,-0.09648494375268822,-0.0711667606192911,0.05800332722288554,-0.11462942773100371,0.03979897162269218
2018-07,0.12372105964398948,-0.24490557520952602,0.070447453713374,0.08836415102663386,-0.0003754805645080645,0.15946920023728325,-0.10908686749627972,-0.05213364818496419,0.03167288948823201,-0.10964029607645855,0.010183378358750985
2018-08,0.061704817561252796,-0.2038516043245057,0.09538661913078839,0.11558149920973032,0.0701533772088373,0.11284641676812543,-0.08188584169892694,-0.1271586299037707,0.0011110975789361877,-0.1096818011534019,-0.020638295461724392
2018-09,0.07695193440879963,-0.17652903960387323,0.11047593661337038,0.15460052813597708,0.07365162979970906,0.10517487579152734,-0.07777164540629893,-0.0662631075769839,-0.00407978779711423,-0.12059480123141875,-0.033906713634927546
2018-10,0.10411132228909413,-0.12453878686372706,0.09535659086300603,0.11812495124767662,0.06208985959280013,0.05589870515242245,-0.12530447063656122,-0.14346773461310233,0.023357156399264004,-0.14771488326977594,3.553907256999036e-05
2018-11,0.06526508796658821,-0.08462825080159038,0.06103100357658062,0.12207530378476972,-0.009647177378315823,0.045285040118835364,-0.1462722869343748,-0.12747438829260366,0.05326935253988393,-0.19681960828632217,0.08823250032013534
2018-12,0.1503468037000789,-0.003158044015962535,-0.009496869858573877,0.08540278532839406,-0.05798997853869796,0.03975329063411344,-0.05484753849366599,-0.23672964503823443,0.0925014207847134,-0.1546859260583656,0.11508769754919984
2019-01,0.08762042741545174,-0.08068254844820714,-0.021200066393791378,0.08527846473389057,-0.07952807228932679,0.05030523178565982,-0.12100444194247108,-0.12911506680745943,0.12241834216833,-0.13588953150915184,0.08695780650626032
2019-02,0.058196051631140264,0.013422835669353839,-0.0317665397520643,-0.11977438245632771,-0.14266434317130322,-0.05991452805763811,-0.2839497180500226,-0.11548673165315342,0.016303101944913308,-0.046829772513553296,0.11169199510052993
2019-03,0.12262924508190914,0.042717021568722334,0.1331918304725765,0.06258378336880033,-0.14439609555402577,0.010759569725215818,-0.01562998141260538,-0.12366722871574637,-0.17830844749571567,-0.07900983831869729,0.08710695828598543
2019-04,0.07994604251264283,0.014826613562222857,0.1913877725008954,0.06392471737195458,-0.1071428350380174,0.050505534212433,0.007957627087797042,-0.110896557373532,-0.19769760266507808,-0.09843362176690887,0.07728107590851795
2019-05,-0.04930074635159134,-0.01683188633678685,0.18946074249273015,0.17873791732994035,-0.08918182138375415,-0.007253803557970168,0.05663399968089998,-0.16365819354545097,-0.04261168317306659,-0.19882679946667017,0.007502406681139211
2019-06,-0.005323847220894331,0.008461932103893302,0.15331612679583614,0.11241206804773574,-0.15159686289665705,0.017930617433331707,0.09639792291373368,-0.061629330294884786,-0.10505709969472321,-0.1981542827804869,0.08971990981782309
2019-07,0.012482470285338004,-0.06030314908127917,0.056142204653167466,0.1048462586706158,-0.16480995647133784,0.0829872198311996,0.07256387702478492,-0.01213589761496673,-0.09925207806731169,-0.20750300405079478,0.12697388424920406
2019-08,-0.0325658285821028,-0.10196904732576383,-0.031722013480706204,0.10892503331588463,-0.12680443963330662,0.1380124127816376,0.061123983503992924,0.057323576759095336,-0.03226766114525857,-0.17639272004787507,0.13289328342437637
2019-09,-0.019495198387318627,-0.09654749770940631,-0.06341832107805909,0.08683373573138639,-0.17655724204894951,0.1332928446232878,0.008931208622560294,0.046240631734901554,-0.05551556690797361,-0.12171502287411089,0.19145273028204596
2019-10,-0.006356796500850029,-0.10493671880439087,-0.03484439587001194,0.10009927172097145,-0.08015196446363883,0.18688803107213006,0.0371649420140492,0.1209895829930483,-0.09585581858646013,-0.0725993789769122,0.16011309899753703
2019-11,0.020168418806705304,-0.1367022261010854,-0.01481465764532163,0.12417576134273105,-0.03353594220303913,0.1934955551459268,0.02020488505891853,0.12407384858649834,-0.06424638632691783,-0.09343324970415759,0.17514906907869834
2019-12,-0.04080949120450023,-0.17793784583605804,-0.03359432145269034,0.09661003951753179,0.008003873462429676,0.16599655658170456,-0.05087401730753227,0.20090283759702898,-0.07904042214829773,-0.026526894298866312,0.11970370059336018
2020-01,-0.041528621539161134,-0.16326136209483605,-0.05614194899732211,0.07988509044807775,0.021371002758849914,0.14530897466709547,-0.056080323090199335,0.17151159242057862,-0.051076477814970635,0.024809894477596732,0.18902471169131219
2020-02,-0.03709551143298161,-0.20508165581411383,-0.038480233083286346,0.18385873928644944,0.06608291891943918,0.1946497921093427,0.018370419570309625,0.12498919487154166,-0.022365230453730792,-0.005196037060297943,0.10383026739850688
2020-03,-0.03604157735551312,-0.17230481113074722,-0.06846011637755137,0.1867358793504473,0.05945298737479318,0.19942602521026398,0.00965890441322211,0.10795330452867236,0.019838094406066504,-0.025287051143734036,0.11484124870898874
2020-04,-0.055875480059559356,-0.17414964221779045,-0.19536056675815855,0.15165528961979194,-0.011667503543843223,0.17972343508352523,0.04813772731760942,0.12455262524382649,0.0005238380971886319,-0.004055112678344294,0.054298779380362386
2020-05,-0.0620249657329198,-0.1181542880545066,-0.20160162458700023,0.12149638680219516,-0.003906409069460852,0.10857752763775387,0.05254559833803867,0.18850410668850334,-0.0419076827525331,0.003218057989522028,0.09806335234756645
2020-06,-0.09004708300215675,-0.10884463135419405,-0.23473660312486674,0.11172352008409593,0.026628457593195768,0.09881584691541291,0.029500413167747853,0.17226302924391734,-0.032880050514246875,0.008542905600587295,0.08601745939957849
2020-07,-0.11244472500639896,-0.10524665571461536,-0.18864498862923904,0.11344076918045919,0.02636289109244673,0.09519747775272193,0.049231633987915586,0.17022516043700003,-0.01888139741343769,0.011952854262557105,0.10837144652320842
2020-08,-0.12585196357758893,-0.10908715334244379,-0.14716202454064628,0.09868420586586261,0.01768567642989122,0.09703793201948471,0.058293658094015315,0.14915330852488745,-0.05799237926715064,0.01936451331688787,0.1196871850211412
2020-09,-0.19184058019640676,-0.10720333028626437,-0.10868587087807306,0.12800662282061942,0.019587767595059292,0.08064833874502375,0.0990720224640728,0.14489339738727702,-0.0247078182359069,-0.019108242155913977,0.07624600923538265
2020-10,-0.2663059726786553,-0.1344152965727519,-0.07114963993821123,0.11537937923104219,0.012877567256564167,0.08982093418761411,0.0565109989977729,0.13415202542952306,-0.049380112336492935,-0.04545463692909211,0.024553436442280103
2020-11,-0.2650932365535253,-0.1353288852474278,-0.0466967966758588,0.0987983879179837,0.012681834810181886,0.09698961265320502,0.07440035955553063,0.12098970578126099,-0.07786982559367189,-0.058975963370023254,0.01217539184133058
2020-12,-0.20605906425599488,-0.1292294311571112,-0.05219366829327689,0.11539427527777397,-0.006768753802734739,0.11305125181397221,0.09614703998363028,0.11115314110049483,-0.06374286371038447,-0.09938070044413408,-0.006879810160492372
2021-01,-0.19088464301895816,-0.11518695625954038,-0.048317068431247036,0.1100034852038616,0.02404306432024218,0.10378223802319533,0.07423949572664922,0.10711368670152185,-0.06403189877333619,-0.136300573607144,-0.026096889934304045
2021-02,-0.1164270005236348,-0.11802196805208542,0.028808123359965843,0.09144539700121297,-0.02123042190030869,0.12783191056617257,0.08904185289941174,0.08717363247690224,-0.11013557996668914,-0.19016862283581945,-0.019715490417797035
2021-03,-0.12908928584482693,-0.13146714953814473,0.017264829127047635,0.09344981449857198,-0.01781813621752619,0.11918535804062166,0.07169417256823768,0.10787970898249277,-0.1430492780965129,-0.15159080975478267,0.01751145733123491
2021-04,-0.14176517147008982,-0.10826211618923591,0.03015981357051697,0.08705638915880089,0.038563078947673565,0.09501954000939916,0.059006808791613415,0.09813493599929475,-0.1350555390522215,-0.18062962440971175,0.026346982401442152
2021-05,-0.13502917704546477,-0.1202293778496507,0.027455736569078477,0.08995319358325206,0.05709547992573921,0.0982247033717064,0.09978696922255986,0.09778067391997552,-0.13796038868619398,-0.1301858056437444,-0.006298494182634564
2021-06,-0.14490033710423864,-0.11824322165733213,0.008795920224440151,0.08597634856618039,0.09907984725967366,0.06235377367574326,0.1521861686084721,0.10649100695812531,-0.07358455861328697,-0.1432179671177029,0.005170850214804295
2021-07,-0.13216099111678095,-0.11321308672391694,-0.00934538190296265,0.08596675366342123,0.114748774014503,0.046045665714237925,0.14206553830078764,0.11130262183860701,-0.09150342717563031,-0.14187328090953727,-0.0117744786396151
2021-08,-0.1336360008657736,-0.12424210098580943,0.004933403499464924,0.12181931979884858,0.1223979413483651,0.020457736738725304,0.13387525407338138,0.15538507377566763,-0.05919080385703713,-0.11509827652919359,0.008964088527733545
2021-09,-0.13150718681709042,-0.11239872996469531,0.003045611088541712,0.07535335227910624,0.12872331394990483,-0.01983727921647238,0.05757569367713348,0.15408104575196654,-0.15166934482376965,-0.15012312976689243,0.015685312664426975
2021-10,-0.15287920415836978,-0.0975578755271377,0.006866630157643329,0.10202153635596976,0.06017883809979081,-0.052239053833143596,0.11479821578865142,0.13256719663439898,-0.14213404135452096,-0.12415996217566949,0.014597445914704226
2021-11,-0.1536491730966058,-0.08761246243896477,-0.05106797910970121,0.09629185104204545,0.009941739438741002,-0.07059877246579838,0.09906522248404517,0.10948085652995729,-0.16161347512279708,-0.0834152067202409,0.07726326155110287
2021-12,-0.07283421615382414,0.05273522869563761,0.028128453906229853,-0.04561815939632495,0.005615655895315725,-0.21990096648374327,-0.045169776662655405,0.004350268311053125,-0.25632979511384385,0.06806330389341352,0.2012541754879585
2022-01,0.03431678414228374,0.1508286568801413,0.03576098033727713,-0.0873841196200254,-0.03765979018971669,-0.24117729381745576,-0.012386286961208226,-0.05912876758547776,-0.12281559020933037,0.01569376513970924,0.20284796511737452
2022-02,-0.033553986956140196,0.11381612851793596,-0.08586053270934874,-0.034034321633085694,-0.014150168596080334,-0.259375884566561,-0.013380075303291595,0.008943856927428852,-0.14798374048382926,-0.01148021990830366,0.27742108439799473
2022-03,-0.0055492775544974384,0.09455877029832815,-0.0651980956013918,-0.015085128475941055,0.014751658104568079,-0.2663013075215235,-0.024091701731553273,0.03587936358849339,-0.17152874166151466,-0.06881979795825162,0.2382361575039372
2022-04,0.06494479732521148,0.13620213727694008,-0.030889174827890366,-0.09600626125852645,5.0406982852049474e-05,-0.23364754827991754,-0.0652743775511539,-0.019013898271293777,-0.09645569910851644,-0.05902451079470284,0.19849118832299503
2022-05,0.10912379240953882,0.07822170598857356,-0.03021175723400722,-0.1088852095491271,-0.05418519473830041,-0.18555084079302567,-0.07532210555882975,-0.029796379870814,-0.10530826620272335,-0.024334446465276438,0.19906030118978377
2022-06,0.10064654763849966,0.03492865974465145,0.029338852896360172,-0.1777464305625216,-0.13392141847745578,-0.0905972634533696,-0.07384078986170198,-0.0016219758562297684,-0.19962249022522321,0.014837894096610935,0.1428976771873758
2022-07,0.09601282885412629,0.0644772439192279,0.06147874626209287,-0.1020504108959573,-0.18894761582705685,-0.1114862554622536,-0.10838094129392052,-0.03910030291097885,-0.09243815958710581,-0.0003622701696842895,0.13526522481759554
2022-08,0.08265592357198909,0.09006112589663849,-0.010086646757163755,-0.06216863065318547,-0.18303544937337904,-0.1091916947811147,-0.10403854125370378,-0.0418700614543526,-0.13461810365512805,-0.04875913864536619,0.13351468395797883
2022-09,0.09761637966694792,0.1214175662096572,0.02804680492481637,0.007746247993170992,-0.1452167295920247,-0.14781151002995427,-0.11169616718335558,-0.04939649203198753,-0.0533034215317654,-0.07067776384343293,0.167070916992887
2022-10,0.10857298249792675,0.13061609807977018,-0.05842005615749563,-0.025067162745728355,-0.09846071959882409,-0.16013713519383269,-0.10811073002487012,-0.043031422264400286,-0.03208955413537642,-0.03634377234154945,0.19915036696022612
2022-11,0.11063914547094227,0.14312526125042646,0.03148755401086503,-0.02226157784444262,-0.10466609957835937,-0.1258011110147334,-0.14264338461762957,-0.03402588983388196,-0.03795663686755763,-0.0713402653679962,0.17605307414316546
2022-12,0.09474052082410842,0.12700020384087024,0.04883177258502456,-0.010685382586380406,-0.09806288712559225,-0.13780509944187289,-0.14903255933819695,-0.013846893385356003,-0.026965177252325466,-0.11503337416662114,0.17799612945365173
2023-01,0.04615734411234295,0.08791388873257029,0.0704614355249396,-0.02170087006933572,-0.18083439410754318,-0.1383572190309317,-0.15867567560542584,0.025191321415085077,-0.059439567563214606,-0.06812162265390458,0.14314666118470654
2023-02,0.06992713508015001,0.11270318363723365,0.08963144225926926,-0.03134150170147129,-0.1336772085237273,-0.14371520630535753,-0.14752018195368496,-0.04329360052321312,-0.02190572217516933,-0.0803191378424404,0.12596567999828315
2023-03,0.042902488891948434,0.13520116700974566,0.06624119511970786,-0.0018146986856091936,-0.12061906648260522,-0.1732217080513776,-0.13221401534781005,-0.05914913219749505,-0.007026663538067209,-0.09806340113454051,0.1635464635410931
2023-04,0.05651786364755237,0.1722239086411327,0.05255685311473513,0.01835408275051905,-0.06145476625357267,-0.2413796967386593,-0.10068041639428248,-0.05536289007938243,0.012716404271178563,-0.06448513094665037,0.16426798716233487
2023-05,0.054524525635239705,0.1730352733613045,0.03170744736112502,0.03185065122794602,-0.023360596186779152,-0.20933194158975657,-0.09228913876873371,-0.11487787144018909,0.0671460854970734,-0.07640819873162626,0.12546827020022663
2023-06,0.15108975305309152,0.1392271997073566,0.03870401931980234,0.04001090429547328,-0.018294977100079966,-0.11786614733478205,-0.10291228994898607,-0.1411751461855922,0.05299026250224404,-0.09144952779457502,0.10627977275801684
2023-07,0.1510118993233927,0.17072175451965527,0.052938591619602474,-0.005706848699166568,-0.007390087693198506,-0.12591292341094293,-0.12628856938222688,-0.15032978103612948,-0.0006418354695856845,-0.10931664177232808,0.09974106707377126
2023-08,0.18375483360905157,0.15037009142414745,0.036414817799557776,-0.018326687040784533,-0.0029001897047927255,-0.09993806033521158,-0.10261403784218069,-0.17316946259605864,0.01788583457101209,-0.09848098264309135,0.11614500243411144
2023-09,0.21035435910556582,0.15032064909083037,0.03436439341741455,-0.026675280540570445,-0.025449794921032533,-0.08578656764993565,-0.10830282890870734,-0.18551907474215168,0.008572477858811154,-0.03734537867864309,0.12730919508633745
2023-10,0.2092094014063622,0.14468895882770855,0.04002735340066312,-0.0381671598195846,-0.0032568377242080293,-0.08186432016906144,-0.12794410853633417,-0.19047488423483122,0.023370520301105303,-0.034609428684305166,0.10638702689583625
2023-11,0.14715152269695128,0.15246112880969803,-0.012008378462799944,-0.009874399791372643,0.07061093578154662,-0.11657562521754633,-0.10383352880290266,-0.1997635420755875,0.06555945828082158,0.001906704982908926,0.12025477509786439
2023-12,0.161204445524874,0.13760004630559236,-0.04684590173297259,0.025389692612387823,0.0733475311800893,-0.09657081924630782,-0.06329875757651811,-0.18500024001865326,0.08053825612265171,0.0029951897087536323,0.1272091199711993
2024-01,0.15557044162170347,0.13372649773860243,-0.03024338938941811,0.06837793611694958,0.09189745311200204,-0.08007544831065119,-0.03573147566892822,-0.1593381820836736,0.09470196742901994,-0.042517469097944974,0.10781973943110633
2024-02,0.15441047118178033,0.09356704865308108,-0.09207229675376195,0.09065919719574786,0.08264687044818375,-0.05903445366644243,-0.04643772383077868,-0.11076583033392083,0.10579291436597302,0.024303617055851205,0.14030957651447865
2024-03,0.14237360969526963,0.08981389742149387,-0.05898670972137665,0.12281127216658042,0.1019404354049617,-0.05732537049951678,-0.013348757741080955,-0.09694479003742972,0.1318885346364513,0.026666189860665785,0.1579004328151733
2024-04,0.09650682239219686,0.01989227692966505,-0.050109008023091,0.15638060612712007,0.07347318419868216,0.020973144475514946,-0.003182329655662014,-0.1608729733817399,0.1401015855386092,-0.05712160264457867,0.2213864666331402
2024-05,0.13463583024891682,0.03154157725532722,0.03524827068119978,0.09662212669735289,0.04730508062809531,0.03189096476060542,-0.04982452577520571,-0.15527277280865176,0.12757462554837976,-0.07729141539373681,0.21279281020252863
2024-06,0.12788136403912853,0.05108131858954637,-0.023938389187927758,0.12675479506908308,0.06515469976011033,-0.008315885775763669,-0.004907184686637331,-0.18150676523418308,0.18548277756827652,-0.08083898334545005,0.1441378367438933
2024-07,0.05800683114068805,0.03992990940560151,-0.0711678694232462,0.10232196909284073,0.05077459219012288,-0.03804623382407399,0.0028913724470390535,-0.1459966735344727,0.3352678778472207,-0.04174162218912857,0.1138550489055657
2024-08,0.07776497058259411,0.03876491550777227,-0.02853037807175009,0.11999712224114997,0.03829543544183699,-0.011239022507533817,0.011892167191685397,-0.15713327009984152,0.358685371684271,-0.06780949484450059,0.08988785182706441
2024-09,0.05538648241158884,0.028024391289509287,-0.08213358112308498,0.03178522369212583,-0.004628457086400263,-0.008927876904429859,-0.020854622068288343,-0.22075484851131136,0.313506707454599,-0.07757717881727497,0.15642063064138734
2024-10,0.008915535350554641,0.07126180310724889,-0.05100278973530554,0.061773916905041165,0.006291888905081525,-0.03943369453131112,-0.01270414592460455,-0.23309504618357577,0.3541520689492537,-0.038518714128727635,0.12285039627929538
2024-11,-0.00678831637187925,0.11253490235059521,-0.0927024836245228,-0.01346418208039133,-0.01851431674738091,-0.09619201923014073,-0.08132957015143454,-0.18951707343868654,0.19860734984427958,-0.05182094073614787,0.1385288454245414
2024-12,0.07477631799545871,0.10539866465592303,-0.04820951374119457,0.03026346060391808,-0.10083349150178483,-0.018717477715497904,0.040604719300934206,-0.207340962470359,0.210967616764017,-0.021336173147418685,0.1415516021034941
2025-01,0.07802095144871903,-0.03594576212617391,-0.06532258296082429,-0.011733850791677752,-0.10667456675837175,0.08226542182937556,0.11247534047772342,-0.1244139346067775,0.157834821880495,-0.0452596438334365,0.1800531232864253
2025-02,0.0641366543913683,0.09121390583042589,-0.0364015854970267,-0.061549511898127705,-0.10796547513537748,0.013601267316467092,0.04999679065659858,-0.27143964368020773,0.02633917872390649,-0.09557737403898281,0.18177861283151134
2025-03,0.10735918107125429,0.03472032899007852,-0.06517042279367692,-0.04532531481269519,-0.170507068713075,0.06304411346090923,0.0384367576784422,-0.2661741203513457,-0.012770086968419591,-0.07085355035869087,0.12563905480141238
2025-04,0.07077461249532199,0.043430323472164925,-0.10885403353832267,-0.05181947309698185,-0.20372240105432488,0.03674186041985021,0.031579445831145934,-0.2624553889622951,0.009941422563775164,-0.08590451561113095,0.09477652295468628
2025-05,0.05159999866421392,-0.008488522644384645,-0.16512717641898603,-0.034221649826478705,-0.21508395655937623,0.07613731396630165,0.07929905546075684,-0.1818974109879299,-0.022082937775629436,-0.1061256183412633,0.05993635935467943
2025-06,0.04937028417830535,0.013175774194357193,-0.16589528130279332,-0.07728366712794882,-0.21826927619990164,0.07336472579213021,0.0680708611429958,-0.07775432511168934,-0.11151386666703754,-0.03826908597290441,0.10703285230993635
2025-07,0.10555798563839443,0.016652312497102993,-0.10026147646071748,-0.09106890766320008,-0.16149062027630584,0.12606075083310453,0.11710026779106651,-0.03701953462640892,-0.17159678214064145,0.00933746417761653,0.06385389789544123
2025-08,0.03763151167693971,-0.043371710544459534,-0.1729736597321007,-0.0989078483569725,-0.13700040447230347,0.09582128642721299,0.06954234267895276,0.01545337489590343,-0.20774152251697287,0.06476756733062015,0.05678877136756202
2025-09,0.0644983700232694,-0.06949873997512858,-0.22034323570661613,-0.06356366548826045,-0.054972196944096434,0.12431791121651672,0.1573198965006572,0.017389069114650824,-0.18868326400106852,0.03542272778343116,0.003990923246304623
2025-10,0.10886864972125578,-0.059238350331740366,-0.145704484042162,-0.037678174887220715,-0.10616756557921964,0.1345226599551201,0.13056748722425418,-0.025553856691941445,-0.15547440756180417,-0.044663225315332,0.051561138689949465
2025-11,0.16051142011767153,-0.12126635829757436,0.004149312528853252,-0.009575780915686482,-0.04213357947516647,0.23126137687434356,0.19155456733001644,-0.07744123712428168,-0.09413421451138393,-0.06030172073446014,-0.007670432090562384
