,EP,BP,SP,MOM_12_1,REV_1M,ROE_TTM,GPM_change,VOL_20D,IVOL,TURN_1M,AMIHUD
2015-07,0.09090909090909091,0.09090909090909091,0.09090909090909091,0.09090909090909091,0.09090909090909091,0.09090909090909091,0.09090909090909091,0.09090909090909091,0.09090909090909091,0.09090909090909091,0.09090909090909091
2015-08,0.1150138081132304,0.15012263526200773,0.15063916158040894,0.0,-0.024550005653017005,-0.0022741505962943923,0.0,-0.24095172958999053,-0.15983159625985613,-0.08718539954006709,-0.06943151340512792
2015-09,0.19792417135089374,0.05817284989639643,0.1329407530168257,0.0,-0.05827955101985005,0.10953401668290824,0.0,-0.31001613072700757,0.043685208181879036,-0.023889886513001175,0.0655574326112381
2015-10,0.06306549741498466,0.13516543919676058,0.03812645556915188,0.0,-0.2442267323460453,0.015325772591949657,0.0,-0.028325838501313698,-0.08263784458318474,0.01367430533417776,0.37945211446243177
2015-11,0.08371728387319893,0.04298912225017807,-0.11978456895120394,0.0,-0.05690267286230875,0.057454427159999114,0.0,0.05035038447053782,-0.06879337603375503,0.12048469266993826,0.39952347172888003
2015-12,0.06873710952530444,0.008739815216628009,-0.061762886285897586,0.0,-0.10441836646625258,0.02822270449499987,0.0,0.01316326224165223,-0.12196115007429512,0.11961478370669262,0.47337992198827766
2016-01,0.15457515047757767,-0.026025925294338274,-0.005843270623430206,0.0,-0.09635933094481164,0.1363464383135369,0.0,-0.0710118796886609,-0.14460358948608848,0.06706405992959523,0.2981703552419608
2016-02,0.15482383042427772,-0.05317909423296715,0.005248760501978699,0.0,-0.04231033817829433,0.1338180310737887,0.0,-0.16084886289339703,-0.1205646091951468,0.0401172601540306,0.289089213346119
2016-03,0.08656853055759432,-0.02798420850687531,-0.07001877792699931,0.0,-0.15711188911923862,0.07423321740891224,0.0,-0.010859506259641948,-0.15303886036995806,0.05973621115807818,0.3604487986927019
2016-04,0.09059015979588167,-0.04740521371542085,-0.06586428978002151,0.0,-0.17038807474193876,0.0859964998105136,0.0,-0.021583109048489073,-0.12823828419201977,0.07582223483922451,0.31411213407649013
2016-05,0.07251966595275841,-0.07914633629306825,-0.08997135523486208,0.0,-0.1479416465011633,0.1096589295624437,0.0,-0.018719946204967267,-0.1250364023571857,0.07083733718864238,0.286168380704909
2016-06,0.09510289851776245,-0.10057172101678773,-0.11092685741268131,0.0,-0.12296222687996768,0.13492961224777936,0.0,0.017228510632787554,-0.10224261406862772,0.06727878577530065,0.24875677344830555
2016-07,0.07684600841926176,-0.03852575696745878,-0.040169335511419504,-0.38228115192028345,-0.10832520656522479,0.08377399501349708,0.0,-0.04460691008033884,-0.0600404931005401,0.03252511896679655,0.13290602345517907
2016-08,0.07454777239362155,-0.05722206398501136,-0.09043776977034208,-0.20534282042705412,-0.14118667960052142,0.07890745194740384,-0.045956288372407304,-0.021390936850480803,-0.0363849216091752,0.05507917596534053,0.1935441190786417
2016-09,0.06898958906078831,-0.04656110281463289,-0.08163094497461398,-0.16953460378182497,-0.15343844156281125,0.06561902945627496,-0.06501939802618828,-0.03680484175729123,-0.07275989655614515,0.03707396787302312,0.2025681841364058
2016-10,0.09277990936186871,-0.052322780989025354,-0.06091897162965031,-0.07304983010929741,-0.1513108140703079,0.07799012369887452,0.09838293761919606,-0.10227768263093796,-0.10027980778262043,0.03037916609226179,0.16030797601595964
2016-11,0.0752341210190261,0.01710213867470072,0.019629484211266847,-0.21936109334543327,-0.21377954985761644,0.034703021667391046,-0.0023963524024313548,-0.17996957282436876,-0.1264053170886741,-0.02925358700034857,0.08216576190874278
2016-12,0.08449643944004699,0.03803760968474696,0.002389385502151794,-0.14256732079157394,-0.20317875111440348,0.024824622797882345,-0.07301031095410115,-0.18073817119779198,-0.09834781438128701,-0.07051942330191893,0.08189015083409557
2017-01,0.05244357881188512,0.10084444819102895,0.01574915812533706,-0.06293155259591782,-0.23493342105373555,-0.03828823700097681,-0.05424542262576289,-0.21509959843814272,-0.08276717668306899,-0.06864515018057801,0.07405225629356603
2017-02,0.03845206413880497,0.09146131266134681,-0.00814746423947301,-0.04169656700007723,-0.32276021286091333,-0.05682843534825768,-0.05220748471142436,-0.1162995454890064,-0.1090308949557639,-0.02959110100864181,0.13352491758629045
2017-03,0.11630844321681202,0.06800986628376438,0.0297712538754418,0.01010473968828745,-0.24857244858553498,0.02411005012116284,-0.02135767457605421,-0.26605733764127515,-0.11863145945018166,-0.062186827610667135,0.03488989895081832
2017-04,0.10442181976979192,0.12283596538545226,0.05273808485353159,-0.002652682271619872,-0.11110600748243447,0.008574254823760645,-0.0540347732797198,-0.2637579714964369,-0.1050419667549368,-0.14356757468658235,-0.031268899195733474
2017-05,0.08075386148879583,0.10398133796050577,0.09481574113793673,0.06393887525811902,-0.04988590784494396,0.04393325899210689,-0.01560504878640457,-0.2618397884159696,-0.023993561493156075,-0.1620924150204022,-0.09916020360165939
2017-06,0.04608730555312325,0.07812267254249115,0.13357865476395775,0.10637406265613758,-0.048277364797090175,0.01809599510066071,0.0146866444837744,-0.23296989666627518,-0.06964298313470901,-0.12520573580345348,-0.12695868449832715
2017-07,-0.004645694840279962,0.03752090408242009,0.08539396493926618,0.2147953624486908,0.02342480334244232,-0.014535026456759756,0.03634048302549917,-0.22165735329145586,-0.08211071879144469,-0.18438334276870003,-0.09519234601304119
2017-08,-0.02008306921751939,0.0010196781861676763,0.11721126680329907,0.1824272333521076,0.01691982646275734,0.032358059221026185,0.036620804876909205,-0.18755307127814544,-0.07633579338286736,-0.22091385777067704,-0.1085573394485237
2017-09,-0.04421025861277461,-0.030590630040660576,0.06709480887118845,0.1404491068945934,0.055633641040108615,0.06041868735026341,0.05093804628229017,-0.13513796293782365,-0.07021411002589782,-0.2086086520524594,-0.13670409589193994
2017-10,-0.009248136057343663,-0.07400800227975488,0.0725578019605645,0.15069653444703218,0.08622911230192534,0.1079994377149494,-0.0018896095852497029,-0.1022353680033409,0.03980855685080432,-0.22496923802667967,-0.13035820277235544
2017-11,0.02554638069500105,-0.13923644420061584,0.07195007354368373,0.17782851955785106,0.06840920130920532,0.12764126617520005,0.020673335159545447,-0.07956988726175754,0.025864360792268542,-0.15856087078985617,-0.10471966051501524
2017-12,0.0068715943232927935,-0.14858182382718546,0.09106168445361938,0.181304130657974,0.0902602796059936,0.13890432507921865,0.051245195558305146,-0.02582170785065071,-0.0012277855289694816,-0.13602992681731696,-0.1286915462974738
2018-01,0.010506359982278363,-0.17131347685707582,0.07215159638127416,0.16839186182097515,0.09505918815265187,0.14957677458689356,0.05443500851283088,0.004109218496745075,-0.028031930165986388,-0.15042936911846094,-0.0959952159248277
2018-02,0.02666872715077278,-0.16200073122388406,0.05081047258618666,0.1679564132346426,0.08783058635697123,0.17369150487181323,0.04175264515335679,-0.02581504866742945,0.00933734697412057,-0.16235083171537967,-0.09178569206544297
2018-03,0.011390742898653453,-0.20162053175099923,0.04788252225286054,0.1469885857854519,0.11112318366758425,0.1730015732651677,0.012568892310444538,-0.020551287713229626,0.05303560265345478,-0.1867444561754258,-0.03509262152672816
2018-04,0.030506124301489298,-0.2338772107426224,0.039732564799406185,0.1809738497332164,0.05600283681685551,0.1690021863430642,0.021921409363380724,-0.028806850755161484,0.057764901854442344,-0.16947805557037873,-0.01193400971998272
2018-05,0.08274925564030727,-0.2204109297558118,0.054377175483667904,0.1283289021187987,-0.03818381523923451,0.17123209751874693,-0.027872465344897623,-0.046366906371020054,-0.00890001134269278,-0.14955431569794983,0.07202412548687251
2018-06,0.06157452182591657,-0.22367421212354938,0.01717242395160188,0.12929805791453844,-0.016474449999345567,0.16842776540898743,-0.06428749575052019,-0.06863602705617662,0.06292799352018544,-0.13113853908601902,0.0563885133631595
2018-07,0.076232093743547,-0.21028778476037052,0.09765269922181846,0.1451306461774549,-0.00039386852131799964,0.18404466385769022,-0.07057015012067568,-0.045719032089958124,0.035076856700588716,-0.12082051914398786,0.014071685662590785
2018-08,0.04338600057168363,-0.17410469405447923,0.12260420575806508,0.1664010746965455,0.06652995273134113,0.13367906396603366,-0.05015176919591665,-0.1045574448290997,0.001123588259779193,-0.112248213743208,-0.02521399219384834
2018-09,0.054958755401178117,-0.14729780297899206,0.13647556655374243,0.19470420195216817,0.07004547240730478,0.12388633360292162,-0.04687009369308306,-0.05769440895455373,-0.004034915424226579,-0.1239311841889325,-0.040101264842896965
2018-10,0.07817653455961673,-0.11721006922378134,0.1283588222996954,0.14166456208200542,0.06392886313883914,0.0713259905684063,-0.0759422725410936,-0.16124930683857755,0.026808340052946876,-0.13528998867703612,4.525001800150649e-05
2018-11,0.04910949219547446,-0.07977618101024717,0.07149471373019166,0.15146464394783365,-0.010899574656188361,0.057382450666025625,-0.09050581529150796,-0.14766378100551744,0.05919657773227057,-0.18414922528785432,0.09835754447688876
2018-12,0.11339554376185318,-0.0030427803058808256,-0.010052996221710237,0.10231397807813218,-0.06503890227770867,0.05021601169495416,-0.03920224250933954,-0.2524358247042459,0.09490195208962045,-0.14140088847886115,0.1279988798776938
2019-01,0.06219513542530325,-0.09284767560319954,-0.021678195278437305,0.09907221101554728,-0.08656492919583211,0.06333784915016416,-0.08069345646597602,-0.16002005557812252,0.11520789492255286,-0.1180861500597999,0.10029644730506508
2019-02,0.04146842729696103,0.015195435023858285,-0.030800395880162312,-0.17552729690370164,-0.14383328565697312,-0.0732524087141515,-0.18857669873298546,-0.15556878976993033,0.013008507481466253,-0.047226679810937276,0.11554207472887286
2019-03,0.08929891895052962,0.04979009800793821,0.11934622364189677,0.09030724731873838,-0.14667753816338888,0.013216258199696518,-0.010173959331560784,-0.17162387666821752,-0.13831852440476713,-0.08004338490611204,0.09120397040715407
2019-04,0.056366730765183524,0.01643845774608503,0.19795169994114453,0.08935721825365461,-0.10373386252822572,0.0574384227535329,0.00490898078527421,-0.1487054207169753,-0.15328536052148017,-0.09389111176105622,0.07792273422738771
2019-05,-0.0290226799911871,-0.017871625182716684,0.1795498321930072,0.24097631724078777,-0.07077952820172585,-0.006464937731264488,0.0295630030038952,-0.20200142379364053,-0.038968994424456095,-0.1779840131287169,0.0068176451086024385
2019-06,-0.003437597267640091,0.00920268667478188,0.15249633441408308,0.16849650940313946,-0.15684358418554056,0.018433064682631055,0.05467479762578215,-0.08462415558171912,-0.10917863841175322,-0.17052227677231427,0.07209035498061517
2019-07,0.008197820564274257,-0.07188989174796527,0.05212940737125624,0.16038976673123553,-0.16962120939248115,0.0872946281957624,0.04122893855208555,-0.01760031326230218,-0.10491190464177269,-0.18576522022042194,0.10097089932044272
2019-08,-0.027341603212331672,-0.12372536744176282,-0.029587931563927923,0.16178806451989378,-0.12421047698593882,0.12865983779929524,0.03331231559785726,0.07986845197019311,-0.03429398437085383,-0.1554590200113951,0.10175294652655045
2019-09,-0.016721230732890707,-0.11506086269663662,-0.05699050306671793,0.13037008766537733,-0.15929647981261244,0.1186066254491488,0.005463759430572446,0.06273523297158241,-0.05774549002650451,-0.1076915564185665,0.16931817172939026
2019-10,-0.005642675987280471,-0.12048363463675284,-0.031224921872534395,0.14923369974749534,-0.08248094215556041,0.14388209853981065,0.024748062264474284,0.14374277203022545,-0.08737173747594705,-0.059271691600003194,0.15191776368991572
2019-11,0.0174534560418087,-0.1486917095632763,-0.01335584400048671,0.17846183994959014,-0.03244734962629212,0.15001321387096603,0.013340327105481994,0.1461934373543025,-0.06125697445555858,-0.07395026957990782,0.16483557845232918
2019-12,-0.03617807109179298,-0.18477547256181306,-0.03134376549601095,0.14219832686410827,0.008048823409336546,0.13476875929895304,-0.030982413587444968,0.21003138782107392,-0.0782632331154606,-0.021689865810809783,0.12171988094319582
2020-01,-0.03960259747096828,-0.16185518259974246,-0.056114866676183386,0.1246525086898885,0.023128516574136136,0.11884741428215755,-0.03707994731697524,0.18392320895602357,-0.05318924080716914,0.024194364175096263,0.17741215245165942
2020-02,-0.03947394036854342,-0.19712834484128552,-0.040874790292490915,0.20741513495651157,0.07398018428173579,0.14187741204863605,0.014375726264602344,0.13838931085839581,-0.02530391404853575,-0.004758338159057359,0.11642290388020543
2020-03,-0.036029712947361306,-0.19723900915281897,-0.06496342551996133,0.20444205102656687,0.06212230090630235,0.15085060890022967,0.006603377301387902,0.13060012711666527,0.02095088465899987,-0.021145236567723675,0.10505326590198275
2020-04,-0.05400599132213361,-0.20756098239077256,-0.10078182473145664,0.20630151602761784,-0.01595990354369001,0.14746089943444485,0.03728904308998967,0.17410033845632464,0.0005923054221880172,-0.003341384591110944,0.052605810990271194
2020-05,-0.06013940255929821,-0.1535273143054998,-0.10302579659009721,0.1624012032934943,-0.005227804408662468,0.10323545596642231,0.03944069534206167,0.22482995736935846,-0.03863947425583213,0.002532287148156354,0.10700060876111703
2020-06,-0.09663389543653533,-0.1459054157509461,-0.11126893885545086,0.1483797137417655,0.03158230977338237,0.09448396528873165,0.022978605692228954,0.21324350599858238,-0.029926911702008865,0.006961385614619758,0.09863535214574827
2020-07,-0.1157435457299626,-0.13289383850470318,-0.09554005579156036,0.14637184726922323,0.030149012871723446,0.08643862102901327,0.03911638861311618,0.20390274115687673,-0.016404979085414537,0.0092507807621983,0.12418818918620823
2020-08,-0.10898959670997146,-0.13136382805881494,-0.07521315872428508,0.13297886708271656,0.019527042120685026,0.08764817532725448,0.04649503338843211,0.19661673136649838,-0.04650453126750866,0.01479926700237755,0.13986376895145577
2020-09,-0.15078224101570298,-0.13340134683105365,-0.05845485808054292,0.17267044657916394,0.02226283328907527,0.07430266200218918,0.07239164171554226,0.19688785652301458,-0.020890230027438263,-0.015187194623229903,0.08276868931304703
2020-10,-0.18747568454088312,-0.17293642770962592,-0.042638491006766054,0.15923528620743244,0.014422864446943387,0.08557945403114271,0.042474972888208194,0.18277592431987866,-0.04418747748729996,-0.04212778172038048,0.026145635641439003
2020-11,-0.1793390928979313,-0.17641195135290652,-0.030790155577325683,0.1409017705482025,0.014640832413682458,0.09063301528499448,0.05910508043002317,0.17004477784384187,-0.0674911558920423,-0.057306317393564114,0.013335850365485659
2020-12,-0.1644392784651975,-0.1655377462679065,-0.03503979252093262,0.17663062635373833,-0.006834247741634259,0.096040428611874,0.06408226080670432,0.14664726235917108,-0.04898776400996679,-0.08817302538161051,-0.007587567481264076
2021-01,-0.15437403644021455,-0.15221661349314536,-0.033283168131205805,0.1698655721539265,0.031796043004912546,0.09092836482603386,0.05061675493579008,0.14431607065574567,-0.048572848517668056,-0.09439736522494366,-0.02963316261641393
2021-02,-0.13954536721338148,-0.152567468971108,0.02521701867872339,0.1534988465529897,-0.028637927734267928,0.10376320014068494,0.050160329564069905,0.12821048847607963,-0.07373435653168062,-0.12478063716341886,-0.019884358973595584
2021-03,-0.14811153286178613,-0.16247286836955468,0.014820840720163283,0.15278327632901512,-0.022875107038980755,0.09966022476643728,0.03955568145321604,0.14632611533491124,-0.0853870825670494,-0.10797309148617486,0.020034179072711187
2021-04,-0.18578237260608393,-0.12639484849871307,0.026378326399128103,0.14522956390836309,0.04170189070042143,0.07381742767138885,0.03049187046945,0.13022042647363388,-0.08078781329181371,-0.12872370409120062,0.030471755889803415
2021-05,-0.1813827401117126,-0.1310984726632812,0.024010648239975306,0.14944814150927774,0.06432747415662934,0.0719350486536375,0.0518900107970715,0.1403135587733832,-0.08246952667772062,-0.09680404718671863,-0.006320331230592461
2021-06,-0.1883594056905107,-0.12492902315585923,0.008076289536060263,0.13537674321216253,0.11600567778132045,0.04289778469730859,0.07654959792845116,0.1496682384864063,-0.04853461119611081,-0.1045583869250118,0.005044241390798187
2021-07,-0.1746915714011384,-0.11925304201246542,-0.008641913994679992,0.13569566988995105,0.13468557162641748,0.0316083495606737,0.06689428898493494,0.15601562724476045,-0.05964559194363702,-0.10214212606862594,-0.010726247272715638
2021-08,-0.16857045125418688,-0.1230211574768424,0.004433483282555454,0.1732183848229426,0.13510499317546584,0.014111127158830917,0.06206798095782412,0.19303023856133755,-0.04068578798615245,-0.07804199476329944,0.007714400560562252
2021-09,-0.1644476068744494,-0.11238574612158951,0.002676283998758444,0.1144708273635985,0.14457905209388483,-0.013250297314025678,0.03266422198888359,0.19317827368965318,-0.1092242550490143,-0.0998987407971882,0.013224694708954543
2021-10,-0.19791104029112686,-0.09689470434334146,0.006215599234685883,0.15971363282416345,0.07512168716574137,-0.03367416301910796,0.06454595596139488,0.17480749779678528,-0.10300487956199102,-0.07544755906441186,0.012663280737249927
2021-11,-0.20551688554854053,-0.08751998412851744,-0.04673991126741128,0.15656995283532227,0.013179932458696557,-0.04627715165254967,0.05426788471571371,0.1479857101498473,-0.11891459830938116,-0.050535939198730194,0.07249204973528982
2021-12,-0.11681304275267874,0.0561490073991127,0.030421916884140324,-0.08527659583852142,0.009252289260375543,-0.15549594134054298,-0.03956317122829638,0.007504749056425422,-0.2557251859849313,0.0411198827803983,0.2026782174745767
2022-01,0.05731144274918029,0.13734759150240136,0.037358568947760525,-0.1558778176953219,-0.052964135895732456,-0.12784381833500869,-0.010622535690169984,-0.09771587334940196,-0.1225618740365987,0.009779081082030369,0.1906172607163937
2022-02,-0.05584317750613076,0.11683846998888198,-0.07124857128216881,-0.06483967773880446,-0.020270157621706635,-0.1636253879062314,-0.013220293791643488,0.015823017373134168,-0.1703198434182111,-0.0076330952446313095,0.3003383081284559
2022-03,-0.011378367821543939,0.09732649464570932,-0.060805622120298726,-0.03272516143846889,0.024859807978694862,-0.16772003507740013,-0.027865680817237656,0.07084757072658349,-0.22410097642832588,-0.0472924443173946,0.2350778386283425
2022-04,0.1092477288678333,0.12392523028457056,-0.02949429101968364,-0.15942310134956267,8.486601987815982e-05,-0.12977809959766015,-0.07027600006841636,-0.03192896242657105,-0.11466917778732211,-0.04439672246912685,0.18677582010937513
2022-05,0.14284407648126315,0.07188398456151196,-0.0262650756823141,-0.15535661303310422,-0.07922879598073981,-0.0870623312920815,-0.06968439493777025,-0.0417098068541023,-0.12346663415269898,-0.018279479530299944,0.1842188074941138
2022-06,0.1274151448445972,0.03432350958121965,0.019616753063656244,-0.21811216203119002,-0.14311946035869572,-0.047419914786698276,-0.06358357985435825,-0.0022492260254627513,-0.19043290067455423,0.011437291463633604,0.142290057315934
2022-07,0.11567692123969443,0.06282011360607005,0.03703206659539036,-0.13314497633969588,-0.18825912891382912,-0.07512407780911205,-0.09516630325912447,-0.053649419560469966,-0.10295664513395802,-0.00027718471994186744,0.1358931628227136
2022-08,0.09962878783269259,0.0947394998358113,-0.004814112439079851,-0.09031643502347753,-0.18312135700828447,-0.07199761010975485,-0.09097503965172939,-0.0573218228316876,-0.13455912687584903,-0.03910433626415764,0.1334218721274758
2022-09,0.11954031743007215,0.1335478574652763,0.014824055241000635,0.011167589904413668,-0.16414603455488996,-0.10321555637740862,-0.09367572870843491,-0.06862731461203116,-0.06170254292462202,-0.06001757225374777,0.1695354305281027
2022-10,0.12586528952190704,0.14448867708392912,-0.03790597595006842,-0.036539310720966854,-0.10816599476116989,-0.12268783654347856,-0.09082220799928768,-0.0629178953404364,-0.03852142475361114,-0.031898309572830255,0.20018707775231456
2022-11,0.12287612721396393,0.14820317169802985,0.026496487478951645,-0.030721343420925168,-0.1366970201944426,-0.09753361142677686,-0.11959443558829358,-0.04726556510429625,-0.04398907484664459,-0.06370483071545362,0.16291833231222205
2022-12,0.10714470785699387,0.13949307273528133,0.044954600261048576,-0.014182397598546033,-0.13738555730736493,-0.11200304390459767,-0.11192899787851718,-0.018220698264669398,-0.030333012416183743,-0.10341207737395466,0.18094183440284278
2023-01,0.04223650944283586,0.09321155941818426,0.06287737434634182,-0.029286472970659005,-0.2329989317434091,-0.11308133467490078,-0.11801619854929099,0.030299509619500575,-0.06746582325921677,-0.0671231699515597,0.1434031160241012
2023-02,0.0639467018924285,0.1221417574015009,0.07923860369880703,-0.039641392835577334,-0.16353700489635611,-0.1220615600284975,-0.10247990827195404,-0.05697846644258503,-0.02513661034452668,-0.07585694767757756,0.14898104651018942
2023-03,0.031313358643418825,0.14882939994513297,0.06226747006404085,-0.0023561230643267313,-0.15526812287698968,-0.14897597463099116,-0.09151985644654731,-0.07676898509577786,-0.008201203272147566,-0.08883834242638138,0.18566116353424553
2023-04,0.03998972151788066,0.20272521450980757,0.04725221785404557,0.022895772128060658,-0.09113904507004025,-0.20730937721202028,-0.07057052528701464,-0.0697131652153036,0.014015881414399993,-0.053988537561409075,0.18040054223001772
2023-05,0.040192376508538144,0.19702054086543197,0.03098020795938505,0.04319527290085258,-0.036417399536235795,-0.1851782858551576,-0.06569281693810602,-0.12483749842910678,0.07231043326890318,-0.06260761046462722,0.14156755727365558
2023-06,0.07606629069926985,0.17128563921563503,0.04597307675594694,0.05925590890506371,-0.032626980067804616,-0.139720987898535,-0.0719731639108306,-0.13673882933093187,0.06406052087319417,-0.0737711573445178,0.1285274449982706
2023-07,0.080401261078485,0.22297813511538875,0.0672478998994142,-0.01004404703902621,-0.013247215747259946,-0.15237697225624006,-0.08546292605981222,-0.14856486331170513,-0.0009005614827582985,-0.09226810976215671,0.1265080082477534
2023-08,0.0934225833545056,0.19151812149259498,0.04848739777890383,-0.03007127427983754,-0.005117917519799194,-0.1227544714552369,-0.07233689993485082,-0.18284054204519812,0.025392626866424576,-0.07738337331317502,0.15067479195947361
2023-09,0.12202487627060501,0.1834063244428581,0.04400712496168517,-0.04121834716159935,-0.04239688276369346,-0.1024956588503808,-0.07297332585456451,-0.19023045201924635,0.01109562289586514,-0.030018189880026858,0.16013319489947522
2023-10,0.1252339523237026,0.17908006858894077,0.051234391831380545,-0.062002587309780526,-0.0055131426497592685,-0.09719960970364921,-0.09179060229014203,-0.19985830458374082,0.031340187690670956,-0.0285288442199355,0.1282183088082979
2023-11,0.0913660923492175,0.18078028537863078,-0.012767108561363389,-0.015388873013493709,0.08406697165772085,-0.1292950318506762,-0.059623682318659624,-0.2014767136917867,0.08403587779357369,0.001289118337356121,0.1399102450475213
2023-12,0.09674361323633504,0.1641297310035866,-0.045975813703657435,0.037328411537817165,0.08721309436793097,-0.10858050037656737,-0.03430274024662466,-0.18465863665682355,0.09773043380942352,0.0019935480443712575,0.14134347701686245
2024-01,0.09418375837940639,0.16207364854733353,-0.030182787204621062,0.09397001833014085,0.09894832602963238,-0.08916314860721825,-0.020061903669492776,-0.1643482158330545,0.11043957913913233,-0.022577942506153956,0.11405067175381396
2024-02,0.09451773541311688,0.1340773209569597,-0.08163582630297142,0.1245146142348277,0.10796444989595454,-0.06520034433326044,-0.02544694677088424,-0.1282036072508733,0.12344451854504279,0.014527661211459486,0.1004669750846493
2024-03,0.09285011284259179,0.11943004356260511,-0.05004608047516183,0.1668447543009114,0.12640749690506034,-0.05816869899061836,-0.008372636028681216,-0.11076633499988625,0.14687847944156576,0.015611886652495487,0.10462347580042246
2024-04,0.06847458134888676,0.02367480996121297,-0.04462822573959244,0.2279867067706868,0.07671960069742013,0.018509807662080824,-0.002157982636595735,-0.18000398110620933,0.1634463270786855,-0.04283815467508574,0.15155982232354392
2024-05,0.11834652196066849,0.038867736066416664,0.03244242786187543,0.14487052173179774,0.04908650229394772,0.027805977648422023,-0.03640079479801788,-0.17760982715891918,0.14872691117836948,-0.05942725109461834,0.16641552820694702
2024-06,0.1035855755910912,0.05537899469982311,-0.017716031033799397,0.1860383776605596,0.06280363796686324,-0.005442567238985346,-0.0036338172834300218,-0.19522987132213152,0.18841825835990206,-0.057507150371675066,0.12424571847173946
2024-07,0.06140910631919457,0.051153534344590766,-0.06705123276789929,0.1679176546796211,0.05667104283182521,-0.034310929966159746,0.0024141501367332444,-0.1825403346396348,0.23014836177210293,-0.033652535993101314,0.11273111654913716
2024-08,0.08549822420871224,0.05018983282625044,-0.025181191973997857,0.2006468173269433,0.04358385046209237,-0.011603808114382833,0.010224840030965644,-0.1889605907196078,0.24449938533444476,-0.059529470314452375,0.08008198868815025
2024-09,0.055636495785023346,0.035341682873655834,-0.06878228701716185,0.06862808534276972,-0.006027431343048938,-0.008963013810424837,-0.019325521117156325,-0.26097631698169055,0.26798903150113984,-0.07189741039077603,0.13643272383715274
2024-10,0.00906962831765114,0.08832791177649801,-0.0359371389643226,0.12200710688951685,0.007778424344828795,-0.0398103284341818,-0.010742968811399528,-0.2547002611222729,0.2867430031400426,-0.03674218506766158,0.10814104313162419
2024-11,-0.006827611481192179,0.14467075561833137,-0.06960829585568502,-0.026933045672199497,-0.022236564171912707,-0.10960734189032806,-0.07406221809401749,-0.20849697048921648,0.16587645288650815,-0.04816206537051529,0.123518678470094
2024-12,0.08646720853899938,0.12109909281533834,-0.03277499706703404,0.05862196292934111,-0.11233101126571848,-0.022021105507510023,0.045437101082102305,-0.23415732263942174,0.15783194503383471,-0.017662638265214543,0.11159561485548532
2025-01,0.08980738753587487,-0.04026159625591897,-0.043872531006994626,-0.02179625182183919,-0.11883919851540262,0.11278027626569571,0.14734192772868834,-0.13523262309577805,0.10619479793551938,-0.03812492244417366,0.14574848739411456
2025-02,0.07504539470926906,0.08732312617727593,-0.02395935435035633,-0.12076488636288957,-0.11727530592647192,0.019021975213662126,0.07279959177365168,-0.2386018468965457,0.024630222282575373,-0.07392017052709465,0.14665812578020757
2025-03,0.12876230344012707,0.03231892084085989,-0.03865417441336077,-0.08316498129081253,-0.1855772054163547,0.08821294195504809,0.05314294822892191,-0.23215727175892206,-0.010760250221416844,-0.05178115026816633,0.09546785216600977
2025-04,0.09495900497939865,0.040619986682199793,-0.06596471488207999,-0.09590684279145949,-0.2183855921656742,0.0531336948723687,0.044053887725947254,-0.23616085600399547,0.008701982924814484,-0.06864569118710778,0.07346774578495417
2025-05,0.06667967288602836,-0.00789507028769193,-0.08607934022708666,-0.06351370647716058,-0.22878566487967664,0.11255107946958817,0.11147432852140073,-0.17536883319178526,-0.018331030385549424,-0.08888596059816896,0.040435313075863226
2025-06,0.06326930636674505,0.01202775382757525,-0.08571169791958842,-0.13415504382100732,-0.22737693525536717,0.10756418497033131,0.09426597127666073,-0.08297111512985668,-0.09647684153415083,-0.035779814648085495,0.06040133525063164
2025-07,0.11677556821468899,0.013668779796926584,-0.03783942170314147,-0.1397965791683901,-0.17874600597470203,0.15930490542244882,0.1424206738881958,-0.03653100507305209,-0.12972347905263543,0.008433715199796955,0.0367598665060216
2025-08,0.04645660232967299,-0.04529310668858236,-0.07206050376450747,-0.16197119456417036,-0.16726286561489617,0.13173421064744972,0.09414485456465768,0.016006075069794696,-0.16727608503816288,0.06176218877810148,0.036032312940004335
2025-09,0.08096482125202024,-0.07598609182681562,-0.0961845355392446,-0.087283246497142,-0.06845721735404195,0.17576572601807838,0.20927166118590437,0.018424284767905797,-0.15297330277782742,0.032156224673329625,0.0025328881076899495
2025-10,0.13030802620447737,-0.062341611089828095,-0.06284953645773532,-0.05028491544533692,-0.13413665985735657,0.1731418749224902,0.16754886340657746,-0.02810675530694659,-0.12263972726975439,-0.038831046104131656,0.029810983935365586
2025-11,0.17576522402924707,-0.10411783940733099,0.001747145179452248,-0.011200583455567664,-0.056009209644670856,0.23159711416517195,0.21186036990089124,-0.08230314787230451,-0.07149205416433695,-0.05048592386172785,-0.0034213883192984987
