,EP,BP,SP,MOM_12_1,REV_1M,ROE_TTM,GPM_change,VOL_20D,IVOL,TURN_1M,AMIHUD,SIZE,BETA_60D,ABTURN_1M,OCF_QUALITY,ASSET_GROWTH
2015-07,0.0625,0.0625,0.0625,0.0625,0.0625,0.0625,0.0625,0.0625,0.0625,0.0625,0.0625,0.0625,0.0625,0.0625,0.0625,0.0625
2015-08,0.0625,0.0625,0.0625,0.0625,0.0625,0.0625,0.0625,0.0625,0.0625,0.0625,0.0625,0.0625,0.0625,0.0625,0.0625,0.0625
2015-09,0.6582607205450582,0.02392675623491294,-0.01577979984804694,0.0,-0.09307985235809428,0.027586805226851176,0.0,-0.10206186140546075,-0.018482013030122948,-0.024146700198984513,0.010398742368055245,-0.0003270337462158812,-0.02594971503819719,0.0,0.0,0.0
2015-10,0.016462023527781876,0.03339210822016046,-0.09790973345167105,0.0,-0.13418273007273707,0.005421008506493724,0.0,-0.004039475288199198,0.002667151364099377,0.004522365253119895,0.09086779806730207,0.07075404355651199,0.016046625343715287,0.0,0.12266114289144145,0.4010737944567666
2015-11,0.030952622116416813,0.02337383831035017,-0.11758457644380592,0.0,-0.023254806680488405,0.02743194295253488,0.0,0.010145243729536995,0.008548973267947698,0.035531633531346356,0.11329658037765028,0.09565123186863946,0.027132729355312746,0.0,0.1478992982139727,0.3391965231519975
2015-12,0.0438831988746918,0.0026947112503294232,-0.13200265683749007,0.0,-0.07424533083494254,0.022448463322476252,0.0,0.004646676208461732,-0.01920040118680265,0.041186322511640325,0.2338341433176772,0.20118999572820992,0.05375864233703168,0.0,0.03409843860607003,0.13681101898417636
2016-01,0.10017842312103312,0.02760819542253408,-0.06921653644671083,0.0,-0.08835347794890544,0.09112698621862614,0.0,-0.030180824564124555,-0.06422954537648999,-0.012465521671625821,0.14771837808537663,0.09644035679077925,-0.02078341108845899,0.0,0.08858969525734932,0.1631086480079859
2016-02,0.09596209884812254,0.013966360386674355,-0.06305124499685394,0.0,-0.03132957109154796,0.08551107675983965,0.0,-0.06317951715298856,-0.08793807764317399,-0.046200625602518294,0.13247117690070506,0.07637480355269669,-0.058365566413222464,0.0,0.1407084616495829,0.10494141900207357
2016-03,0.04968640034654466,0.0068655947371634085,-0.11264099549488323,0.0,-0.09299228152472062,0.045019736415139275,0.0,-0.0037042614240504756,-0.05603378989930078,0.003878688147253267,0.1731170879578001,0.11715981384340578,0.00441209031223624,-0.16298350708231787,0.03392355414027256,0.13758219867491173
2016-04,0.049271874940663964,-0.015418596955327449,-0.09411432060566018,0.0,-0.09387178716058575,0.04910573989604962,0.0,-0.006995028653058548,-0.05234749080487663,0.007402591547705678,0.14311033767065737,0.10386023051173185,-0.003468536332362399,-0.20531473244855375,0.0693124003640238,0.10640633210874306
2016-05,0.0444103396914028,-0.04916164368504495,-0.12660637754512938,0.0,-0.09137196761312512,0.06957838067534883,0.0,-0.006895906619659055,-0.05774255454749475,0.01088086816454258,0.14627933273357197,0.1019972708641924,0.006797360148252639,-0.14180139457948665,0.014808754815663513,0.13166784831708545
2016-06,0.05831503271857857,-0.06794906666686963,-0.12811491132881636,0.0,-0.0786488825578208,0.08390115346024335,0.0,0.006481881065197714,-0.03390480333520956,0.02507972228432266,0.13197173212470512,0.10232870969531384,0.015790260661795237,-0.1165581880632649,-0.013157826761316858,0.13779782927654527
2016-07,0.08064361265103806,-0.015241055702968239,-0.07465401805625622,0.0,-0.11033666761329988,0.09137945974194883,0.0,-0.025869459522859156,-0.07008657306543231,-0.011388114601035493,0.1147528173433282,0.08437976970474223,-0.005262941541133045,-0.16973134428808218,0.01901161792134936,0.1272625482465268
2016-08,0.0596935055901552,-0.03113821747023721,-0.06138103882164762,-0.12142482797222971,-0.10820793832039112,0.06024693955793637,0.0,-0.009740695755341916,-0.04454197952586611,0.008518622851015836,0.13099412279633507,0.09415334195783978,0.003509713996685949,-0.14552137674400512,0.04250978527486184,0.07841789336545121
2016-09,0.03496133942970185,-0.01723293115121025,-0.03076231350666121,-0.08361597244568104,-0.07291265756732604,0.0319336767230649,-0.3909231529731449,-0.0101458452153889,-0.04455365110820648,-0.007465922985980671,0.08521891087467925,0.05694204171960442,0.003760759692475152,-0.07224551840347357,0.03714052259882265,0.020184783604578746
2016-10,0.07893399334146384,-0.010005541749446989,-0.029049017703042954,-0.049502618546832106,-0.10991365111213597,0.05873144272380243,0.07310056722936163,-0.048895709791625795,-0.12332359015419135,-0.02959030395908627,0.11305268347602236,0.0728686892099252,-0.001668132942663863,-0.1399537133489774,0.050286562442675514,0.0111237822687464
2016-11,0.05265975533591501,0.033597007308324815,0.022648853885634774,-0.1116793742149769,-0.14674638267736118,0.020337496560148566,-0.001412462421586744,-0.07583783319301844,-0.15406551799754248,-0.0728874259126435,0.0587509226857969,0.020723508167581832,-0.003287111995812,-0.08932741213495433,0.08202289266284211,-0.05401604284586052
2016-12,0.060611250711346064,0.05153322730888761,0.01963308362898998,-0.07525354841725354,-0.1411163920704435,0.014491297444031609,-0.0450888342028809,-0.07689611601955723,-0.14217354002793348,-0.08289714704140205,0.05876585910535518,-0.0005857302851722891,-0.02218003962061549,-0.07606003441900992,0.09210501242810579,-0.040608887269015424
2017-01,0.04362942248273921,0.0705482391647766,0.03220433600241153,-0.028725949724018315,-0.15041008245947934,-0.026249847561496727,-0.034093753117063155,-0.08536598677584188,-0.1560847466583811,-0.08890270519988848,0.04411846378533938,-0.0006942780687282038,0.0033769697180718724,-0.0454912370006416,0.12365362631150252,-0.06645035596961991
2017-02,0.03202914216859801,0.04754975391724601,0.01505593645129803,-0.020995901937090954,-0.24918912436283358,-0.03955556007962783,-0.03698723636927241,-0.046473240685168865,-0.10664816330883246,-0.04795807703900829,0.07849359902529593,0.04263205647096743,0.032350929595843445,-0.0681428501147855,0.0933457212128308,-0.04259270726130054
2017-03,0.10456028190011432,0.05104899603062887,0.03798060018184264,0.004656284279575156,-0.18272874318235882,0.014835595130670894,-0.01412330851828437,-0.12380575137643451,-0.1555442567220827,-0.10715210910455092,0.017963631893237048,-0.02144151581874461,-0.026277139975589135,-0.02654061065461045,0.09162375866914277,-0.019717416562132797
2017-04,0.09620949303216589,0.08162395895089539,0.06022568014398017,-0.0013199484904561254,-0.05481415193279209,0.005486820237140328,-0.03804613206846739,-0.12287731623069437,-0.14660345436498037,-0.140382117155224,-0.016004429273939573,-0.07610779745940423,-0.02917795067285646,0.03413843441231377,0.08623807501421792,-0.010744240560471909
2017-05,0.06848747121440674,0.05712211827665461,0.07751512553174011,0.029527175194198143,-0.021992731635911304,0.02380105811110538,-0.010742206053387457,-0.11812882305191648,-0.1185622748892353,-0.1390697034038783,-0.04534473647253915,-0.09133433478780148,-0.06477518484463407,0.03899465638403022,0.07317053326211327,-0.02143186688644804
2017-06,0.04623637505920562,0.04413620411558429,0.08760629445391811,0.05002074774650975,-0.022594180209353425,0.01105157367938842,0.01078400235623695,-0.11837035901089249,-0.12094647903465762,-0.12799125801694672,-0.06132714045040602,-0.10985759244828704,-0.03568582582465966,0.029159194512289637,0.09545504841521883,-0.028777724666445317
2017-07,-0.005019910403089014,0.011520234125434386,0.05566264424635254,0.11158871167654576,0.011667340543481697,-0.00816304994707593,0.02612830500997595,-0.14082671120464693,-0.14469143100290072,-0.15394308108254964,-0.04243287962745756,-0.11325502933844285,-0.020596695452621026,0.04321758617920712,0.099949552182993,-0.011336837977225856
2017-08,-0.021983277442043047,-0.012394735006322407,0.062157178924851765,0.08937311879817783,0.008410270619094008,0.019321251196390256,0.026545131557876755,-0.11241632377620338,-0.10973057462223614,-0.16517190744257557,-0.049322554354240634,-0.13072296468487024,-0.05057892331936897,0.012295552363498403,0.08492165229585132,0.044654583596399275
2017-09,-0.052069703183827025,-0.02645287266733959,0.007952201271127845,0.06407413904756909,0.027918691725872392,0.034919487037710896,0.03728288613651372,-0.09136028536254595,-0.08351789878799938,-0.146865400997428,-0.0643498665717504,-0.12361624661340345,-0.035507000624060765,-0.014448602776051355,0.06276570649434363,0.12689901070245654
2017-10,-0.012397688574817694,-0.04100994031477022,0.009967537259367486,0.06735600868604154,0.04913736279001328,0.06517827368978428,-0.0018119155690140781,-0.07436833890233649,-0.030961766835118795,-0.15265822843100293,-0.06648519912387407,-0.13972045440438746,-0.09125727996346929,-0.00021035971861480308,0.06116203893211785,0.13631760680526978
2017-11,0.03344049770461338,-0.09239655235736315,-0.0019594430605831678,0.09345661166159071,0.03741072493475619,0.08694066075863231,0.02230758645211174,-0.05520495366272881,-0.025415835608248186,-0.1037381757299854,-0.0505630732404137,-0.09938134681930756,-0.08175199601559524,-0.004626310928520035,-0.02359783239571741,0.1878083986698329
2017-12,0.008577019993345683,-0.11230580271313743,0.006735337631656272,0.09669853668105285,0.05217240982340854,0.10622497417417338,0.07547381539945826,-0.016882623690772605,0.0017830570308682275,-0.08352272688042753,-0.06804795821946634,-0.0981587838338283,-0.024119746002328142,-0.004469818210186675,0.003622334286374435,0.2412050554295153
2018-01,0.011253509643312627,-0.15448976032222417,-0.017680729083171944,0.08159163578664817,0.04948318411151626,0.10161462274106751,0.07014021820624115,0.0027577400554900616,0.014997654216558135,-0.064465465248875,-0.048849258643649626,-0.07965650008664286,-0.013748624580167887,-0.016642879101575803,-0.02200172188776378,0.2506264962850949
2018-02,0.027343929516253532,-0.1316817919125388,-0.019881613132843732,0.07419631535439772,0.04109157802487688,0.12007606865917175,0.04426183319721795,-0.018274614174957834,0.00042825055284222515,-0.0968061446303983,-0.04284300068787351,-0.09468901437880689,-0.013407712694463975,-0.021092318097967393,-0.013884879438191108,0.2400409355471985
2018-03,0.011051775771686145,-0.16738315681389368,-0.03242539613899944,0.05221895951391255,0.04800057932227083,0.09788936048441559,0.010351774525118497,-0.01358304805896408,0.022008900600669592,-0.08498594517537675,-0.014003872957917666,-0.05695819291206212,-0.02337868795353874,-0.03653489006387478,-0.014581867291592545,0.31464359241570705
2018-04,0.029636302208797996,-0.17611241964879226,-0.0521361763229118,0.06734811709927865,0.03546254686914534,0.08886461293483996,0.019472037877302804,-0.01998536699624029,0.022728649800385473,-0.07592314566058599,-0.005136420890951135,-0.03597250564189463,-0.01026556441481505,-0.07114762817314685,-0.0183729465165093,0.2714355589444025
2018-05,0.07430665186841963,-0.15102815268173322,-0.02337531854079734,0.047161389323432744,-0.02284427404482593,0.08673565834743358,-0.022385158284940167,-0.02841098421779436,-0.011454062775919111,-0.07548418507298872,0.032833020154500105,-0.006563823316033297,0.0009481696973158236,-0.11229744331964618,-0.019663099598402532,0.2845086087558173
2018-06,0.052412870875873215,-0.13910191488109452,-0.03502196265441959,0.04387435701440816,-0.009044454138287862,0.07940120617442907,-0.05444943493093041,-0.04016160191291222,-0.012002291769501088,-0.06223454192448033,0.022459789386852877,-0.006757758982563548,-0.054362646418281424,-0.08448650363663499,-0.04113938747567406,0.2630892778236567
2018-07,0.08596464686167825,-0.13619297284909748,-0.002241005596553903,0.06139773665126069,-0.0002608937736569691,0.11080339534077291,-0.07579642518863561,-0.036223830192915286,-0.004084612351040342,-0.06423861235053135,0.007075679168832705,-0.026518574361958248,-0.07636345299268099,-0.05843268979836263,-0.06116051437994855,0.1932449581420741
2018-08,0.04144706022750884,-0.12202784506262733,0.007553953458074425,0.0776359699009893,0.04712194874332907,0.07579881793839141,-0.05500263264382258,-0.08541231625613911,-0.05434081684884777,-0.09231492097266758,-0.013862721077589815,-0.04329120911913562,-0.07553928162104083,-0.03377650442152148,-0.071233342574504,0.10364065913381074
2018-09,0.05641070925480719,-0.10544160458760891,0.03573000913808826,0.11333211452473847,0.05399137405308654,0.07709993757490075,-0.05701161005227452,-0.04857511282286632,-0.029115904901404324,-0.0874757232926457,-0.02485579835439696,-0.06703654558084357,-0.06995623149766765,-0.01045860544009199,-0.0691432028357587,0.09436551608882003
2018-10,0.07135893128068546,-0.04565871447501809,0.043118797102238454,0.08096401134173531,0.04255700462248528,0.038313526059872684,-0.08588492502754133,-0.0983342060225126,-0.07591818209560068,-0.10606206544321352,2.4358832272432774e-05,-0.05395105940935105,-0.09196541851359365,0.025613065845763984,-0.07642165360639532,0.0638540803217201
2018-11,0.046753826654846606,-0.02269110099563026,0.022989983046179076,0.0874508526658656,-0.006910930068542037,0.03244075786518064,-0.10478479935917333,-0.09131858454272086,-0.07345567928486338,-0.1131671692989765,0.06320694806085549,-0.02129444025746756,-0.12131692503141685,-0.014920882757131323,-0.06382073655270509,0.11347638355844554
2018-12,0.0787653364226772,0.04766327754215467,0.0009846917138117436,0.04474175008897185,-0.0303804274938635,0.02082639094177673,-0.028734131455347145,-0.12402052902869731,-0.09583310026794052,-0.08973151904706843,0.06029340825666844,-0.006746181112574161,-0.16136348880270848,-0.04265378610356313,-0.1217702350377017,0.045491746684474935
2019-01,0.059771717103004,-0.0006851089196632555,-0.029570051513170905,0.05817410870280369,-0.05425138382498479,0.034316542064290974,-0.08254517223134188,-0.08807796851251114,-0.06014352927552588,-0.08722702961872963,0.05931969934071971,-0.0020927281649314546,-0.19988150460568394,-0.03810395942899948,-0.08654450348299852,0.05929499321064077
2019-02,0.029587560159580795,0.06120365762003098,-0.0045747024828414595,-0.06089471101862446,-0.07253223746109506,-0.03046125387636586,-0.14436339115153193,-0.0587148186972988,-0.055647700826284265,-0.03146201946964232,0.056785529804090976,0.04580381661924519,-0.15863246282144053,-0.02496002597425341,-0.12090689683369754,0.043469215183976354
2019-03,0.07192067872905382,0.09466962841994016,0.09384500475985222,0.03670468797479541,-0.08468669273087533,0.006310367131047932,-0.009166809034551497,-0.07252944450434143,-0.1147825743674198,-0.04350524252917829,0.0510872553913786,0.03628830359827094,-0.09572659180198928,-0.04348118230064207,-0.13186850017078441,0.013427036555878763
2019-04,0.05788172938234637,0.07627085199047116,0.13866689112679803,0.0462821307406344,-0.07757247748626414,0.03656650875661017,0.005761401104359319,-0.0802902097663375,-0.1217438165140848,-0.07111398086286076,0.05595226707320764,-0.02384854538245639,-0.10240376600117287,-0.0807780881492584,0.0004603065335467821,0.024407029129591248
2019-05,-0.027174745732094874,0.041038231709594586,0.07623755908413563,0.09852097210630853,-0.04915733532197113,-0.00399832217290645,0.031216860899922712,-0.09020897502960515,-0.11161364621322616,-0.10241224802122192,0.00413535309353683,-0.055622450320083436,-0.1494227484042213,-0.07319590007331844,0.03822772713967165,-0.04781692467818143
2019-06,-0.0037346146523703438,0.03836181992020831,0.09485191914457894,0.07885571073239832,-0.10634337198957548,0.012578111995730546,0.06762198095369466,-0.043232232328482244,-0.09746294730706603,-0.10095561590068544,0.06293743526297155,-0.03788482158361991,-0.04199165140648203,-0.07056712554165166,0.08557941695387654,-0.05704122432660812
2019-07,0.010366682620945464,-0.008914193121681626,0.0009787628539884908,0.08707474264196848,-0.13687455066622914,0.06892082656068442,0.06026424783440949,-0.010078854266725171,-0.06083590812845292,-0.10969127250679317,0.10545171981753462,-0.013359911445133687,-0.023751495891969784,-0.15698177668760815,0.11997578064389931,0.026479274311976077
2019-08,-0.023367707627311125,-0.04728038290699738,-0.05717210965441339,0.07815948319581684,-0.09098890463436814,0.09903121926378577,0.043859697042158495,0.04113270382422964,0.03648612657584884,-0.04231129744855132,0.0953579726941405,0.013544719140905503,-0.00883840519985317,-0.11191331959220685,0.11274041399252861,0.09781553720688452
2019-09,-0.012139537358733816,-0.03919593941632224,-0.0619901067300534,0.05407082082300208,-0.10994108360561418,0.083000615577673,0.005561407408028357,0.028793750403814006,0.015850574952359996,-0.022900309627571128,0.11921641039581898,0.06757603254197031,0.009440286865134756,-0.14515813063055524,0.13720132254988993,0.0879636711134585
2019-10,-0.0036632735015694608,-0.04581900593513387,-0.04939845070892833,0.05768487469636667,-0.04618970695052495,0.1076992116855521,0.021417288920484816,0.06972347365298008,0.04820038678960557,0.02352465727706005,0.09226944306513722,0.06317516819533332,0.04776968047862777,-0.10144404546633846,0.10343205870781881,0.11858927396853847
2019-11,0.01188495842277037,-0.04803484926587435,-0.04107100412242699,0.07317498584388549,-0.01976224723273985,0.1140241409076474,0.011906447459444098,0.07311493012597403,0.056401199362267875,0.014937415055895707,0.10321282118036898,0.060634424335605126,0.03831913055107907,-0.09586040113808357,0.1062136333066539,0.13144741168928326
2019-12,-0.020173368341434426,-0.07332603666865177,-0.050221094343646,0.04775727055506112,0.003956557230932116,0.08205712888092098,-0.025148568626118625,0.09931236151352256,0.07531139970250027,0.050116773964045666,0.05917316713902928,0.0634019745266279,0.06802001700587959,-0.06960127324326543,0.0891319159538357,0.12329109230452864
2020-01,-0.01933782923685218,-0.06270954297577566,-0.04774558428690178,0.03719854356828775,0.009951421132079415,0.06766321718732232,-0.026113838390786116,0.07986448293840326,0.0640895491860196,0.05566967274755348,0.08801947815158923,0.08965496625678458,0.057607950172808994,-0.09148992484462959,0.08008514531890853,0.12279885360529746
2020-02,-0.02102783046518396,-0.07834997312608613,-0.05169853424113292,0.10422151494642892,0.03745952979224838,0.1103384929994366,0.01041339109171354,0.07085093312399628,0.058935587995833046,0.04344454401757017,0.05885685830090286,0.055021489727491255,0.04198560267807417,-0.05454107345499146,0.06393530062990063,0.13891934340900977
2020-03,-0.020752010724934305,-0.07251511543672057,-0.05868069722087113,0.10751873961525597,0.034231826744463165,0.11482546874051756,0.005561401655569879,0.062157327668358194,0.0673547748514525,0.0310762024334508,0.066123266508735,0.04783810511303927,0.028240613183892434,-0.07789026978766343,0.07971413611183553,0.1255200442032402
2020-04,-0.034335378541695605,-0.08828953498458403,-0.10525337879691038,0.09319189332056901,-0.0071696592205993,0.11043971648796533,0.02958054387765873,0.07653735648535312,0.07988865004371312,0.0537526514529449,0.03336649890774042,0.05452150138399333,0.043016720584488896,-0.015271557437489054,0.05647499617595036,0.11890996229834443
2020-05,-0.0337861506130941,-0.06577109966465355,-0.08305806085538564,0.06618133802961582,-0.0021278935605620374,0.059144195544787274,0.02862256316510744,0.10268168735777747,0.10161671776175096,0.08466593701224054,0.053416929020265784,0.07603941986524744,0.08202586271059566,-0.0011161197551227907,0.06897425109050004,0.09077177399329356
2020-06,-0.048858606314381506,-0.06403243316631173,-0.0886610983554735,0.060620014572987296,0.014448322843217403,0.05361644598689235,0.016006615928247963,0.09346811965191319,0.10577597711725063,0.08519943953733833,0.046672174654082244,0.0838198151882927,0.07686899380615865,-0.011236231862064084,0.06514574745704517,0.08556996355834313
2020-07,-0.05771698537850558,-0.06223408180151076,-0.0825138178015462,0.05822824695193473,0.013531862874237036,0.048864110176904986,0.025270207196280297,0.08737522454198707,0.10078876724344016,0.0786229247606509,0.05562620384434725,0.09912756226171375,0.07678231624032135,-0.009647915412908997,0.07114186338266519,0.0725279101310458
2020-08,-0.06249289480777097,-0.060341500841933265,-0.08114383139627336,0.04900250676312821,0.008781977533914933,0.0481850350655726,0.02894622650034029,0.07406338172968037,0.08720601621058299,0.06917289913714203,0.059431720020428236,0.10603803262264073,0.0905582914063047,-0.002111232091137579,0.09589688575238059,0.0766275681207692
2020-09,-0.09969058128237997,-0.06752519985733248,-0.08535109547467248,0.06651905777139083,0.010178847121794735,0.041909171462672076,0.051483098613196415,0.07529432508350532,0.09642722869307657,0.05364631438374401,0.039621486618498965,0.06920184623383437,0.06952328864386224,0.022856886803299694,0.08825129281787115,0.06252027913886857
2020-10,-0.15124287648353513,-0.09388979911912697,-0.10324693868085225,0.06552729188257568,0.007313543494359096,0.05101191054158393,0.032094233394061554,0.07618882148218394,0.09537915107586874,0.03789880441370834,0.013944607842375077,0.023673109704335685,0.07278058576286384,0.02677982431989259,0.08494668105207907,0.06408182075059818
2020-11,-0.16082077574199008,-0.10763681046525604,-0.11256845768911063,0.059936773919994246,0.007693529033485643,0.05883946700637219,0.04513552927551786,0.07339930129303324,0.08887819525889817,0.03355333406029327,0.00738629165474815,0.019064071009985927,0.07366647001739134,0.036944704528612295,0.07900088553071292,0.035475403514598075
2020-12,-0.14091656018843912,-0.10725386280875408,-0.10531767359517268,0.07891409386087547,-0.004628913103569266,0.0773117823675574,0.0657515853316767,0.0760137310851942,0.09012153928982289,0.018013215250328157,-0.004704860647923928,-0.010689226808022863,0.07253791163815343,0.0557968535616628,0.05349686138204775,0.03853132908079937
2021-01,-0.14395733166611002,-0.10463846553978431,-0.10271741646745021,0.08296009544543381,0.018132288328060863,0.07826828719098414,0.05598836836750959,0.08078072849966943,0.08963015991631293,0.0075071398567595005,-0.01968119897080173,-0.037628023690722684,0.07849167031342559,0.03826915761344087,0.02576690700132058,0.03558276113221377
2021-02,-0.10251823487182377,-0.10388606959959679,-0.0702725917016174,0.08052101871175854,-0.018694163458775396,0.11256067555288862,0.07840461016696207,0.07675957371316897,0.06782990724345682,-0.004366957258940046,-0.01736021084606231,-0.03397323415500843,0.09766791080760977,0.05607550949405071,0.0642773973457624,0.014831935072518065
2021-03,-0.09771712126331888,-0.09790841333616791,-0.07043982927166526,0.07073899894657718,-0.013487850413451753,0.09022011399510906,0.05427056249381627,0.08166204139641416,0.07266284857083231,0.030603206449716407,0.013255702735784317,0.0045994595507584555,0.08081131741390381,0.09608720075885747,0.11619798525130806,0.00933734815231867
2021-04,-0.11718471749295474,-0.10062807150736677,-0.07383494700919284,0.07196181025099807,0.03187668356959646,0.0785442421212831,0.048775705250459954,0.08111946419570935,0.07285183678167706,-0.01038440286660647,0.021778717984736146,-0.013540079693426571,0.08128829756974217,0.06495050820869133,0.12562536024186943,0.005655155255689546
2021-05,-0.10267573157038713,-0.0956869770120541,-0.0729387183118629,0.06840010552047772,0.04341521069008488,0.07468973371272547,0.07587767540542943,0.0743520952127151,0.0665217226885747,0.02035454716071541,-0.00478935376889755,-0.02548362825979425,0.07459796942995198,0.06467810292539632,0.09947118216944563,0.03606724616148745
2021-06,-0.10358637110511354,-0.09514077011740259,-0.07590279420073823,0.06146278281210733,0.07083021359636504,0.044575473521040285,0.10879486724176454,0.0761283043681678,0.07493904520549503,0.008570329509442544,0.0036965380480402316,-0.028257748956666853,0.06428658950252308,0.08112300439375741,0.08007418526819943,0.022630982153176004
2021-07,-0.09708198925293925,-0.09528073781226107,-0.07770997880495299,0.06314891697420567,0.08429143237750313,0.03382393538547307,0.10435760920060831,0.08175997959648772,0.07913131008466223,0.008053656799084477,-0.008649222430089159,-0.03903816270820268,0.060294651965208036,0.08107181522611412,0.07062095922120912,0.01568564216099909
2021-08,-0.08937509424330295,-0.09777191408932273,-0.07164478373554325,0.08147215658311167,0.08185913580416146,0.0136820328143817,0.08953510560131595,0.10392076628102473,0.10629286931636461,0.05448817261941762,0.005995137925267626,-0.01908383215225954,0.05548436490696705,0.06496744828715618,0.05688378882681241,0.007543396813590417
2021-09,-0.10065445391119066,-0.10610333020727322,-0.08026224501331267,0.05767479867530193,0.09852370189689594,-0.015183280510707043,0.04406793382091208,0.1179322886725599,0.10039705025118116,0.05421644444546761,0.012005401521211784,-0.017437550230850356,0.08068004788447453,0.07826859821801262,-0.02476762596307683,0.011825248777571736
2021-10,-0.12112030200708418,-0.10912678108214191,-0.08796813545601832,0.08082773168979286,0.04767737433752881,-0.04138698923550277,0.09095020243428344,0.10502788120193035,0.08728706159986258,0.07392908405206897,0.011564993862013486,-0.00019048432753696715,0.07707939910543149,-0.03075692457561477,0.018628652781697057,0.016478002251492055
2021-11,-0.09591373823252888,-0.0797809484446629,-0.07816791298531973,0.06010908622961169,0.006206017090009823,-0.04407047591180324,0.06184033161901762,0.06834217199519273,0.04828757630283076,0.056112298296354716,0.048230706967388154,0.03407844439921123,0.0753741463505062,-0.1402567872885772,-0.034684967664450575,0.06854439022253447
2021-12,-0.05476631094514057,-0.004922250791543331,-0.022210682209487503,-0.03430171194494202,0.004222586212422977,-0.16535037161861862,-0.0339645590309501,0.003271101957282721,-0.04289133927496607,0.04400015987059667,0.15132926989292128,0.12526394588692558,0.08577210132225606,-0.1737810690355322,-0.03844911750595231,-0.015503422500461947
2022-01,0.027394809897218927,0.06360131953295127,0.04099965789099854,-0.06975803254468718,-0.03006350445714526,-0.19252987366942784,-0.009887872221004665,-0.04720201463939408,-0.07021109337079862,-0.04412179305440891,0.16193188206062364,0.13909209163719322,-0.005776846284466902,-0.03873115207290781,-0.013424616247001914,-0.045273440419771334
2022-02,-0.029090608528333256,0.026869012999634775,-0.02479202548707845,-0.02950704869885218,-0.012267901748205235,-0.2248734950478132,-0.01160024688679948,0.007754137859961297,-0.019677774738939884,-0.017907021869800335,0.2405183078325938,0.18570582188037252,0.028660327671270948,-0.09911216781434515,-0.0380498381005608,-0.0036142628354387816
2022-03,-0.005122070943158118,0.01627066167113905,-0.02937418112561656,-0.01392381215061108,0.013616013724088088,-0.2458003183271195,-0.022237021702115348,0.03311722001482602,-0.0008887364507543138,-0.04548778894817498,0.21989574101796186,0.14463285945803786,0.048874267130344144,-0.017915965088288355,-0.08537129750279937,0.05747204474496527
2022-04,0.05662543870794998,0.07238401437652595,0.03761839995957757,-0.08370796255243251,4.3949902617270486e-05,-0.20371754889211477,-0.05691280006177793,-0.01657823837325888,-0.024551473142500373,-0.06128009384492987,0.17306468079605036,0.10365124097180436,-0.014431533001759594,0.011325201801421278,-0.059797119002532734,-0.024310304612746716
2022-05,0.07793454147641621,0.06847283714761297,0.05877063807392497,-0.07776414925103847,-0.03869823631945756,-0.13251756906960188,-0.053793894348309744,-0.021280118218160636,-0.0440125336462328,-0.0357203824778085,0.1421658188084289,0.0902987270423451,-0.02873042533260975,-0.01428420922100736,-0.07146399825822597,-0.044091921308819185
2022-06,0.08299033190068843,0.05772421945720229,0.09424860410766284,-0.14656474178855633,-0.11042786095331111,-0.07470397286049756,-0.06088705278239971,-0.0013374359856524374,-0.045688828695184064,-0.0085122721034934,0.11782943315863285,0.10080325333704217,0.017848727213460574,-0.030926305570411938,-0.03283082967049028,-0.016676130415313992
2022-07,0.06810908904498761,0.06360412159095485,0.09717078392114295,-0.07239199808757243,-0.13403469249672106,-0.07908554920413156,-0.07688271733543414,-0.027736772725402276,-0.057923209426780115,-0.023651460396898274,0.09595375276140455,0.08714063490513206,-0.007968441990546474,-0.04061191928543648,-0.047753171775795814,-0.01998168505165936
2022-08,0.06020767611629075,0.07395408671851816,0.08777404573156672,-0.04528445896198,-0.13332546026267747,-0.07953668545297247,-0.075783059758068,-0.030498710680031012,-0.07266070898349905,-0.04717875904611936,0.09725387487213415,0.08122632267464787,-0.0029672374999432467,-0.04200218846075007,-0.045982836434998446,-0.024363888345803178
2022-09,0.06364711070367084,0.08008098418744596,0.09802462580943724,0.005050651389055526,-0.09468313920166928,-0.09637496877318269,-0.07282730974197205,-0.03220713580507245,-0.06362497888352314,-0.0585998107173698,0.10893234501720127,0.07924925878811538,-0.032928546379130307,-0.038094665840377656,-0.01934206530762227,-0.056332403455154084
2022-10,0.0692203444375096,0.08824470434592722,0.07756262133607625,-0.01598148636437761,-0.06277330480744416,-0.10209489875222694,-0.06892563690838115,-0.027434540363985904,-0.05211073721876858,-0.04684222061678808,0.1269676551079963,0.10448570486919082,-0.02873786701777623,-0.019972004336049055,-0.03975125749061091,-0.06889501602689115
2022-11,0.0742900575436376,0.09966917926663445,0.09994718658885848,-0.014947818803518868,-0.0702793801185547,-0.08447075161831048,-0.09577970985184509,-0.022847115304198095,-0.04802868426467997,-0.05492520132487618,0.11821306964328518,0.08350281274914856,-0.021877753259198277,-0.009239201952442187,0.0093851053820627,-0.09259697232874925
2022-12,0.06473122120650548,0.09137841170474029,0.10652957295431603,-0.0073007606234218834,-0.06700121957805405,-0.09415498561505091,-0.10182611918930484,-0.009460854879766407,-0.04145886382694389,-0.06278085597976052,0.12161540520721056,0.06795849875000833,-0.027773449354055096,-0.019392093166805405,0.03529195643566138,-0.081345731528395
2023-01,0.03233514590485157,0.06795443392960981,0.087819640859669,-0.015202365158756065,-0.1266820401072255,-0.09692500620195654,-0.11115893301322578,0.017647571998731286,-0.030568483465999437,-0.03527835751926556,0.10028021031569893,0.07422610707114057,0.01874639609473629,-0.06223798717635172,0.055196069365887696,-0.06774125181689421
2023-02,0.04640604425996654,0.07767971777312531,0.08762106730966147,-0.020799295058566744,-0.0887127786400878,-0.09537433811627474,-0.09789945040840554,-0.028731117609076064,-0.06889061745265217,-0.05641586594675409,0.08359514392427143,0.06474744575725773,-0.00631322395796513,-0.04488538951221031,0.04691230011831985,-0.08501620415540517
2023-03,0.02564052088637862,0.07973560047068348,0.08177668418548219,-0.0010845482570494569,-0.07208755886475267,-0.10352534172205259,-0.07901723908222302,-0.03535026984892867,-0.07740564790135386,-0.0627260236416384,0.0977429660288483,0.07390168946173632,-0.0051255192217335216,-0.04706051769352592,0.05113638729034127,-0.10668348544327158
2023-04,0.03288882527576111,0.09821542728515233,0.09362974693256901,0.010680591616891808,-0.03576170327811079,-0.1404634598480223,-0.058587858949014485,-0.03221672407748257,-0.06491422959202815,-0.04740931143311334,0.09559068194568908,0.09966337022829476,-0.010926502510325413,-0.017460354925510436,0.03853250933773734,-0.12305870276429696
2023-05,0.03284655571442448,0.10060544156885866,0.07653292323941532,0.019187405629133486,-0.014072843646626622,-0.12610532970492594,-0.055596638450060264,-0.0692044976210837,-0.08931445826281034,-0.07502179301047018,0.07558434446719219,0.07729278843384584,-0.03235837201878548,-0.00823611793388274,0.043427701672306994,-0.10461278862617779
2023-06,0.08852592399458448,0.11282708660613051,0.08009023003980109,0.02344303436230407,-0.010719322253940261,-0.06905967737485763,-0.06029797106711313,-0.08271679586873458,-0.09432258842955456,-0.08762751643126561,0.06227103357586298,0.052002458007173465,-0.038001068681778216,0.004505468477365242,0.028860256975285197,-0.10472956785424893
2023-07,0.08016907990349126,0.1184396910771161,0.0876225565281714,-0.0030296474079890474,-0.003923244018678885,-0.06684455505189704,-0.0670439776935711,-0.07980695747658151,-0.10031707673847891,-0.08879312479127806,0.05295046027315275,0.04353813565903182,-0.02016066144282694,0.011977127835683577,0.07591183116865517,-0.09947187293339642
2023-08,0.09492463162333585,0.10709553966467227,0.06843280825448585,-0.00946725581066261,-0.001498188831053855,-0.05162630759773043,-0.053008672208730595,-0.089456408424688,-0.10779819434081385,-0.0900557381077319,0.05999853911002857,0.04931168720095042,-0.027841814074595742,0.00789445914735628,0.08576584844120679,-0.09582390716195693
2023-09,0.10160685140505869,0.11096276519772429,0.0686269215960449,-0.01288488281202574,-0.012292940074195733,-0.04143723509614874,-0.0523131989775027,-0.08961073656985617,-0.10263145193682438,-0.06843312251249747,0.061493788494031046,0.06812903239881467,-0.016501791198586985,0.006707483194873061,0.09083415284829083,-0.09553364568752452
2023-10,0.10164409315101927,0.10624399836434092,0.06640757839479475,-0.01854346086711627,-0.0015823300233728762,-0.03977366470661819,-0.06216146501433365,-0.09254195435743943,-0.10332081843773006,-0.05552545347231169,0.051687987247075615,0.0618965721918393,-0.02060273018231617,0.013050857018626552,0.12790413022637825,-0.07711290634468712
2023-11,0.07271753035273355,0.09901139881298358,0.050203714579695136,-0.004879609489484696,0.034893644128331645,-0.057607909247421235,-0.05131117669714022,-0.0987166912582146,-0.09256296057399152,-0.05472562544616368,0.05942602630248741,0.08249412691729051,-0.041027928070418475,0.019436387460880958,0.10056715900373926,-0.08041811165902348
2023-12,0.08126696784949596,0.10197542249858702,0.038840600948497006,0.012799543626240322,0.036976222577760565,-0.048683630512399406,-0.031910398501325425,-0.09326298979406933,-0.0815795294583766,-0.05406250857331038,0.06412912143460076,0.10731565055333069,-0.042717958070198805,0.013810836714308184,0.10052610529075962,-0.09014251359673997
2024-01,0.08503339177099735,0.10136727589476546,0.045394031725939574,0.037374759431894805,0.05023031400933914,-0.04376851345575869,-0.019530500379372536,-0.08709280451968139,-0.06604667860395681,-0.07249204990274472,0.058933291235274465,0.0750671521631023,-0.07387365620966448,0.011377496041481248,0.08374931266452133,-0.08866877199150575
2024-02,0.09048818062436946,0.08896876196256093,0.025403174648672595,0.053128429363132106,0.04843301677610933,-0.03459558322402381,-0.027213602222851775,-0.06491139095394946,-0.04133094262468891,-0.034582604270794744,0.08222472352943015,0.12006913491458066,-0.06634166006146998,0.01995334478069844,0.1002588902593231,-0.10209655978334455
2024-03,0.08000957012494499,0.07933029197928407,0.028090415222521935,0.06901614079728001,0.05728737532579184,-0.03221508719724432,-0.007501589450825057,-0.05447997696588226,-0.01510876905507962,-0.0256713665582439,0.08873516502900412,0.14860577284803508,-0.07026847938058044,-0.0015514839434710762,0.13239356149574888,-0.1097349546260624
2024-04,0.04398690254898414,0.03266120970342639,-0.013315319102047186,0.07127681040320819,0.03348838676064737,0.009559362118888227,-0.0014504759453531186,-0.07332438917271895,-0.041525775287087036,-0.05721326871756803,0.10090587061172629,0.1270475941427534,-0.07020566427468124,-0.09548532389341365,0.13944151986486714,-0.08911212745262982
2024-05,0.06799161228210023,0.03874766652849078,0.02882304426600801,0.048794545732236363,0.02388924772174325,0.01610505990341787,-0.025161577214506393,-0.07841334767464267,-0.04154911322046657,-0.06762391422348513,0.10746118786477546,0.12107815920778718,-0.07056555290509564,-0.03307996502400197,0.14237993914835945,-0.0883360670828831
2024-06,0.06779479083373158,0.04500604788600178,0.019386074057681564,0.06719755363456756,0.034540992546183064,-0.004408568371170961,-0.0026014858530229333,-0.09622366227023957,-0.04582734698651232,-0.08020326073403033,0.07641296733657664,0.07317492851039954,-0.10467626499010836,-0.03717130518348078,0.13157080562032467,-0.11380394518596834
2024-07,0.04072769909950422,0.04277435362322826,-0.012696086121688112,0.07184220007424039,0.035649806616807944,-0.02671298418798413,0.002030087572306695,-0.1025070405038855,-0.04597313071897066,-0.07692160098627546,0.07993979470346595,0.07470724386356585,-0.14709874168517076,-0.040895042680339,0.10801829902048111,-0.09150588854208597
2024-08,0.05569602935097795,0.053935812698669254,0.015725820213950303,0.08594310770397043,0.02742756385552386,-0.008049497386372237,0.008517285970697683,-0.11254037850114977,-0.04753880014131812,-0.0930825506944056,0.06437855497340214,0.03039689915402444,-0.1648321108110135,-0.016192515903609334,0.12677694156771088,-0.08896613107320456
2024-09,0.03323448039358298,0.044259756207828044,-0.00808917169018273,0.019072621109091695,-0.002777290768303498,-0.005357143783417331,-0.012513748807761299,-0.13246323588700162,-0.07930521038419797,-0.09704889469605965,0.0938596956486868,0.04620549794197506,-0.10180383479822182,-0.08283694594060252,0.15070005262209918,-0.09047241932098782
2024-10,0.004351381015601238,0.0521238235585487,-0.001489148770885074,0.030149827095150513,0.0030708650526679346,-0.019246295708747405,-0.006200477842568706,-0.11376606327188261,-0.05809446326946004,-0.0841838539621059,0.05995925775736608,0.04464567034827829,-0.0882347770198446,-0.12306085336623106,0.17791359227353984,-0.13350964968712195
2024-11,-0.003147064797465361,0.06673365449102456,-0.005776239227225809,-0.006241997445403861,-0.008583240864579178,-0.04459463892554001,-0.037704404626284854,-0.08786015230643071,-0.0774898861130861,-0.07616371459750987,0.06422199982827341,0.041011444200250775,-0.056177755806698884,-0.11785601631906434,0.1802052298839945,-0.1262325605671679
2024-12,0.03500029348764611,0.07082534212197683,0.021768718164798802,0.01416531371808488,-0.047196784898674383,-0.008761025294541635,0.01900571104079364,-0.09704936981404075,-0.0918907958886841,-0.07501421619024837,0.06625557061487948,0.03290862774291176,-0.07690164112468278,-0.133278723368625,0.13163613573413505,-0.07834173079527638
2025-01,0.043555143117739704,0.004692827600796544,-0.016352407127937587,-0.006550414229306592,-0.05955100438934783,0.04592461582290162,0.06278928237556346,-0.06945399443380246,-0.07256905057480985,-0.07540324946637332,0.10051453369792306,0.06275071805900895,-0.07106525533260889,-0.09927469565474831,0.1907883834576961,0.01876442465943563
2025-02,0.026089587504715087,0.05114271618276369,0.015912114913947888,-0.02503718648528101,-0.043918329351018685,0.005532740321355873,0.02033775626696549,-0.11041655357995328,-0.13455896126617806,-0.09829883006362149,0.07394412868831686,0.03406854242875496,-0.046818223876168415,-0.08901203962965154,0.19715044188410133,-0.027761847557206468
2025-03,0.04709764141659451,0.055197717308762634,0.015218411511864897,-0.01988386463870069,-0.07480013074907135,0.02765696440287044,0.016861907964390334,-0.11676852551962828,-0.16134881380018304,-0.09302989310483784,0.05511688047461421,0.02457110165364959,-0.04679795758092456,-0.08198301250271056,0.1539594484413317,-0.009707728929865354
2025-04,0.032870634816916655,0.04905446027549803,0.009200008650717855,-0.02406709011212903,-0.09461704434658359,0.017064427960447652,0.01466679074653797,-0.12189505448555649,-0.16610511677931558,-0.1045530339170636,0.0440181071350483,-0.0034548354994773964,-0.05906715562041704,-0.07152787189819546,0.18147720546594215,0.006361162290153311
2025-05,0.02729844951605253,0.023055730763794476,-0.02925115060174786,-0.018104612486977638,-0.11378795895049107,0.040279664251975614,0.04195235112801332,-0.09623095774222164,-0.12118969759342399,-0.10595441239555783,0.03170871554991783,-0.010434593125460976,-0.04432311980154759,-0.06552854081741397,0.19323548642694133,0.0376645588484622
2025-06,0.028998355682149823,0.0417769718770056,-0.03465289721408795,-0.04539368782450578,-0.1282036393161269,0.04309184053630473,0.039982412008927194,-0.04567013564821809,-0.09245222268960555,-0.04862253836013287,0.06286730515362174,0.04131106275105967,6.944296325272523e-05,-0.07768877480312165,0.1738216136403787,0.09539709953150102
2025-07,0.0672653256504298,0.07844517046626621,0.028005921531482427,-0.05803236669917994,-0.10290760188989942,0.08033042128687823,0.0746204808578084,-0.02359017214105521,-0.08515094831320569,-0.03014784636434353,0.04068998863524997,0.061481720355101126,0.029455010920111296,-0.05410061754185864,0.10723274103796367,0.07854366630916651
2025-08,0.027375169565697088,-0.0077259832562759385,-0.06775359414947814,-0.07195084649787224,-0.09966140438882803,0.06970551665495846,0.05058881075985947,0.01124160947265049,-0.054824972777153945,0.03267403191862282,0.04131118247283331,0.11812025229862044,0.07567042705070152,-0.08290289043804802,0.07154446519575386,0.11694884310264617
2025-09,0.04810656923474066,-0.03779920595633484,-0.10100800672852252,-0.04740941319170869,-0.04100140511028257,0.09272340062079222,0.1173381666898049,0.01296976120466055,-0.050962347342059344,0.012826115738225318,0.002976658563458646,0.10640028831481309,0.04291382283038185,-0.05442186413966801,0.0473581206353098,0.18378485369923706
2025-10,0.09847777053335832,-0.0202695585485279,-0.04358187861362387,-0.034082012316306205,-0.0960344891570229,0.12168325475254642,0.11810558024654982,-0.023114889750120667,-0.07967206567370244,-0.047787518922915134,0.046639927998998035,0.07756358354346234,0.02131346246058134,-0.06053839019558524,0.001978101484833811,0.10915751580186558
2025-11,0.12880773204000542,-0.03247196260239684,0.017536988074242525,-0.007684404146180419,-0.033811493356328576,0.18558338990331824,0.1537193388582292,-0.06214529852790701,-0.08447824713679808,-0.06422546805537147,-0.006155393557840954,0.026087279678251293,-0.012238620330855083,-0.07266814522693334,0.024019940528443473,0.08836629797689814
